{"learner":{"attributes":{"scikit_learn":"{\"_estimator_type\": \"classifier\"}"},"feature_names":["mage","male","bord","parity","medu","fedu","v505","v131","v743a","v467b","v159","v158","v157","media2","s1112s","s1112p","wealth","v714","v481","v136","v151","v137","rural","szone","v483a","com_poverty","com_illit","com_uemp","com_media","com_diversity","com_zses","UN_Population_Density_2020","Travel_Times","Nightlights_Composite","Malaria_Prevalence_2020","ITN_Coverage_2020","h1a","antenat","facility_del","h34","m70","m74","v393","h69","contact_count","h11","h22","community_dropout","cluster_dtp_coverage"],"feature_types":["int","int","int","int","int","float","int","int","int","int","int","int","int","int","float","float","int","int","int","int","int","int","int","int","int","float","float","float","float","float","float","float","float","float","float","float","int","float","int","int","int","int","int","int","float","int","int","float","float"],"gradient_booster":{"model":{"cats":{"enc":[],"feature_segments":[],"sorted_idx":[]},"gbtree_model_param":{"num_parallel_tree":"1","num_trees":"427"},"iteration_indptr":[0,1,2,3,4,5,6,7,8,9,10,11,12,13,14,15,16,17,18,19,20,21,22,23,24,25,26,27,28,29,30,31,32,33,34,35,36,37,38,39,40,41,42,43,44,45,46,47,48,49,50,51,52,53,54,55,56,57,58,59,60,61,62,63,64,65,66,67,68,69,70,71,72,73,74,75,76,77,78,79,80,81,82,83,84,85,86,87,88,89,90,91,92,93,94,95,96,97,98,99,100,101,102,103,104,105,106,107,108,109,110,111,112,113,114,115,116,117,118,119,120,121,122,123,124,125,126,127,128,129,130,131,132,133,134,135,136,137,138,139,140,141,142,143,144,145,146,147,148,149,150,151,152,153,154,155,156,157,158,159,160,161,162,163,164,165,166,167,168,169,170,171,172,173,174,175,176,177,178,179,180,181,182,183,184,185,186,187,188,189,190,191,192,193,194,195,196,197,198,199,200,201,202,203,204,205,206,207,208,209,210,211,212,213,214,215,216,217,218,219,220,221,222,223,224,225,226,227,228,229,230,231,232,233,234,235,236,237,238,239,240,241,242,243,244,245,246,247,248,249,250,251,252,253,254,255,256,257,258,259,260,261,262,263,264,265,266,267,268,269,270,271,272,273,274,275,276,277,278,279,280,281,282,283,284,285,286,287,288,289,290,291,292,293,294,295,296,297,298,299,300,301,302,303,304,305,306,307,308,309,310,311,312,313,314,315,316,317,318,319,320,321,322,323,324,325,326,327,328,329,330,331,332,333,334,335,336,337,338,339,340,341,342,343,344,345,346,347,348,349,350,351,352,353,354,355,356,357,358,359,360,361,362,363,364,365,366,367,368,369,370,371,372,373,374,375,376,377,378,379,380,381,382,383,384,385,386,387,388,389,390,391,392,393,394,395,396,397,398,399,400,401,402,403,404,405,406,407,408,409,410,411,412,413,414,415,416,417,418,419,420,421,422,423,424,425,426,427],"tree_info":[0,0,0,0,0,0,0,0,0,0,0,0,0,0,0,0,0,0,0,0,0,0,0,0,0,0,0,0,0,0,0,0,0,0,0,0,0,0,0,0,0,0,0,0,0,0,0,0,0,0,0,0,0,0,0,0,0,0,0,0,0,0,0,0,0,0,0,0,0,0,0,0,0,0,0,0,0,0,0,0,0,0,0,0,0,0,0,0,0,0,0,0,0,0,0,0,0,0,0,0,0,0,0,0,0,0,0,0,0,0,0,0,0,0,0,0,0,0,0,0,0,0,0,0,0,0,0,0,0,0,0,0,0,0,0,0,0,0,0,0,0,0,0,0,0,0,0,0,0,0,0,0,0,0,0,0,0,0,0,0,0,0,0,0,0,0,0,0,0,0,0,0,0,0,0,0,0,0,0,0,0,0,0,0,0,0,0,0,0,0,0,0,0,0,0,0,0,0,0,0,0,0,0,0,0,0,0,0,0,0,0,0,0,0,0,0,0,0,0,0,0,0,0,0,0,0,0,0,0,0,0,0,0,0,0,0,0,0,0,0,0,0,0,0,0,0,0,0,0,0,0,0,0,0,0,0,0,0,0,0,0,0,0,0,0,0,0,0,0,0,0,0,0,0,0,0,0,0,0,0,0,0,0,0,0,0,0,0,0,0,0,0,0,0,0,0,0,0,0,0,0,0,0,0,0,0,0,0,0,0,0,0,0,0,0,0,0,0,0,0,0,0,0,0,0,0,0,0,0,0,0,0,0,0,0,0,0,0,0,0,0,0,0,0,0,0,0,0,0,0,0,0,0,0,0,0,0,0,0,0,0,0,0,0,0,0,0,0,0,0,0,0,0,0,0,0,0,0,0,0,0,0,0,0,0,0,0,0,0,0,0,0,0,0,0,0,0,0,0,0,0,0,0,0,0,0,0,0,0,0,0,0,0,0,0,0,0,0,0,0,0,0,0,0,0,0,0],"trees":[{"base_weights":[-2.0652057E-1,1.0194718E0,-1.1643947E0,-1.4390916E-2,1.4544971E0,-1.1819878E0,-2.5658375E-1,2.1608381E0,4.767546E-1,4.6885986E-4,-1.1942474E0,1.789655E-2,-1.4390539E-2,2.3338583E0,-1.4390677E-2,-2.1991825E-1,2.2935781E0,-1.39132915E-2,-8.6104035E-1,2.5839324E0,4.5920607E-1,1.7376657E0,-5.627993E-1,3.9268718E0,4.040185E-1,-1.2867322E-2,1.4482634E-2,2.9437313E0,1.2292999E0,2.9238994E0,-1.2537962E-2,-2.2008014E-1,3.8119879E0,-1.4390893E-2,6.765901E-2,2.1368492E-2,5.0347634E-2,-9.884395E-3,2.3442469E0,3.3031342E0,1.8292005E0,4.06977E-1,4.89804E-2,5.0807185E-2,1.4491242E-2,-1.4390361E-2,1.2765728E-2,3.2018602E-2,5.2714624E-2,7.9242986E-1,-9.4270384E-1,1.736219E-2,3.616601E-2,4.131302E-2,2.1963581E-2,8.225434E-3,3.902905E-2,1.5863268E-2,-1.4390699E-2,2.8291095E-2,-5.816401E-4,-1.4390791E-2,5.826907E-3],"categories":[],"categories_nodes":[],"categories_segments":[],"categories_sizes":[],"default_left":[0,0,0,0,0,0,0,0,0,0,0,0,0,0,0,0,0,0,0,0,0,0,0,0,1,0,0,0,0,0,0,0,0,0,0,0,0,0,0,0,0,0,0,0,0,0,0,0,0,0,0,0,0,0,0,0,0,0,0,0,0,0,0],"id":0,"left_children":[1,3,5,-1,7,9,11,13,15,-1,17,-1,-1,19,-1,21,23,-1,25,27,29,31,33,35,37,-1,-1,39,41,43,-1,45,47,-1,49,-1,-1,-1,51,53,55,57,-1,-1,-1,-1,-1,-1,-1,59,61,-1,-1,-1,-1,-1,-1,-1,-1,-1,-1,-1,-1],"loss_changes":[6.266053E2,2.3339743E2,4.7839355E0,0E0,1.3584943E2,4.4075317E0,1.0648163E1,6.7850525E1,1.0442709E2,0E0,3.5370178E0,0E0,0E0,5.097046E1,0E0,4.0028522E1,7.057403E1,0E0,1.7049238E1,4.67547E1,4.9464134E1,3.6096798E1,2.2721636E1,1.3157944E1,2.629708E1,0E0,0E0,3.03609E1,5.137668E1,1.2831192E1,0E0,6.4963794E0,3.597042E0,0E0,1.968558E1,0E0,0E0,0E0,2.9098148E0,2.7388977E1,3.3048435E1,2.663638E1,0E0,0E0,0E0,0E0,0E0,0E0,0E0,2.259064E1,5.4076834E0,0E0,0E0,0E0,0E0,0E0,0E0,0E0,0E0,0E0,0E0,0E0,0E0],"parents":[2147483647,0,0,1,1,2,2,4,4,5,5,6,6,7,7,8,8,10,10,13,13,15,15,16,16,18,18,19,19,20,20,21,21,22,22,23,23,24,24,27,27,28,28,29,29,31,31,32,32,34,34,38,38,39,39,40,40,41,41,49,49,50,50],"right_children":[2,4,6,-1,8,10,12,14,16,-1,18,-1,-1,20,-1,22,24,-1,26,28,30,32,34,36,38,-1,-1,40,42,44,-1,46,48,-1,50,-1,-1,-1,52,54,56,58,-1,-1,-1,-1,-1,-1,-1,60,62,-1,-1,-1,-1,-1,-1,-1,-1,-1,-1,-1,-1],"split_conditions":[8.5714287E-1,1E0,7E0,-1.4390916E-2,1E0,2E0,2.2434582E-1,2E0,3.7E1,4.6885986E-4,4.3E1,1.789655E-2,-1.4390539E-2,7E0,-1.4390677E-2,5E-1,4.3E1,-1.39132915E-2,5.9375E-1,1E0,3.6776093E-1,9.2E1,3.3333334E-1,3.66054E-1,1E0,-1.2867322E-2,1.4482634E-2,7.1428573E-1,1E0,5.714286E-1,-1.2537962E-2,8.35876E-4,4E0,-1.4390893E-2,1E0,2.1368492E-2,5.0347634E-2,-9.884395E-3,1E0,9.2E1,6.0399354E-2,9.3119977E2,4.89804E-2,5.0807185E-2,1.4491242E-2,-1.4390361E-2,1.2765728E-2,3.2018602E-2,5.2714624E-2,4E0,6.111111E-1,1.736219E-2,3.616601E-2,4.131302E-2,2.1963581E-2,8.225434E-3,3.902905E-2,1.5863268E-2,-1.4390699E-2,2.8291095E-2,-5.816401E-4,-1.4390791E-2,5.826907E-3],"split_indices":[48,36,36,0,39,24,35,36,24,0,24,0,0,3,0,48,24,0,29,38,35,7,27,35,14,0,0,48,18,48,0,33,16,0,1,0,0,0,11,7,33,31,0,0,0,0,0,0,0,19,29,0,0,0,0,0,0,0,0,0,0,0,0],"split_type":[0,0,0,0,0,0,0,0,0,0,0,0,0,0,0,0,0,0,0,0,0,0,0,0,0,0,0,0,0,0,0,0,0,0,0,0,0,0,0,0,0,0,0,0,0,0,0,0,0,0,0,0,0,0,0,0,0,0,0,0,0,0,0],"sum_hessian":[5.3357776E2,2.3403459E2,2.9954318E2,3.7327785E1,1.967068E2,2.9384842E2,5.6947536E0,1.14203636E2,8.2503174E1,2.9152253E0,2.909332E2,2.0265408E0,3.668213E0,1.08725296E2,5.4783373E0,5.963555E1,2.2867619E1,2.6221838E2,2.8714817E1,9.592859E1,1.2796707E1,8.888533E0,5.074702E1,1.2265496E1,1.0602122E1,2.5425117E1,3.2897E0,7.579646E1,2.0132126E1,4.976184E0,7.8205233E0,4.572775E0,4.3157573E0,2.3864609E1,2.6882412E1,2.5205083E0,9.744988E0,6.391156E0,4.2109666E0,5.7314182E1,1.8482285E1,1.5915095E1,4.2170305E0,2.5435216E0,2.4326622E0,2.5685747E0,2.0042005E0,2.0063555E0,2.309402E0,1.5653584E1,1.1228828E1,2.1644406E0,2.046526E0,4.5550095E1,1.1764086E1,1.1010261E1,7.4720235E0,9.990512E0,5.9245834E0,5.1721396E0,1.0481444E1,9.155209E0,2.07362E0],"tree_param":{"num_deleted":"0","num_feature":"49","num_nodes":"63","size_leaf_vector":"1"}},{"base_weights":[-2.7901697E-1,-1.0671225E0,1.080932E0,-1.1707251E0,-3.0622262E-1,-1.4346817E-2,1.5658939E0,3.0172972E-3,-1.1831348E0,1.7213124E0,-7.0667803E-1,2.6526725E0,3.7299573E-1,-7.6370823E-1,-1.378757E-2,3.8220584E-2,-1.4363063E-2,2.5872624E-2,-1.0078768E0,2.7847674E0,-1.4362418E-2,1.6683388E0,-3.2247272E-1,-1.3122799E-2,5.4921496E-1,-3.278589E-1,-1.369624E-2,1.2970383E0,3.0259829E0,-1.4379493E-2,2.335956E0,-1.4372403E-2,2.2740586E-1,3.5502847E-2,-1.43483495E-2,-1.4372986E-2,1.8722754E-2,-6.294184E-1,2.8345497E0,2.1219018E0,3.423537E0,2.7431815E0,-2.5110585E-3,-9.9714637E-1,1.2125419E0,-1.4424001E-2,3.6154357E-3,4.756176E-2,-4.8662812E-5,-6.38261E-3,2.7270274E0,4.051265E-3,3.560687E0,5.396338E-3,3.1138723E0,-1.4401413E-2,6.440538E-3,2.4763172E0,-2.960782E-1,3.607388E-2,2.148568E-3,4.3718353E-2,2.847512E-2,4.0464744E-2,2.0019293E-2,-1.0667944E-2,4.2085987E-2,-1.4392897E-2,2.8500631E-2],"categories":[],"categories_nodes":[],"categories_segments":[],"categories_sizes":[],"default_left":[0,0,0,0,0,0,0,0,0,0,0,0,0,0,0,0,0,0,0,0,0,0,0,0,0,0,0,0,0,0,0,0,0,0,0,0,0,0,1,0,0,0,0,0,0,0,0,0,0,0,1,0,0,0,0,0,0,0,0,0,0,0,0,0,0,0,0,0,0],"id":1,"left_children":[1,3,5,7,9,-1,11,-1,13,15,17,19,21,23,-1,-1,-1,-1,25,27,-1,29,31,-1,33,35,-1,37,39,-1,41,-1,43,-1,-1,-1,-1,45,47,49,51,53,-1,55,57,-1,-1,-1,-1,-1,59,-1,61,-1,63,-1,-1,65,67,-1,-1,-1,-1,-1,-1,-1,-1,-1,-1],"loss_changes":[5.592299E2,2.6041016E1,2.181731E2,5.187195E0,3.2143272E1,0E0,2.0572531E2,0E0,4.41037E0,3.2420273E1,2.9825315E1,4.303247E1,6.8151436E1,1.2025822E1,0E0,0E0,0E0,0E0,4.1599693E0,2.882788E1,0E0,5.1878E1,2.5682888E1,0E0,2.5239979E1,1.29601145E1,0E0,3.3197227E1,2.4844177E1,0E0,2.243615E1,0E0,3.7594166E1,0E0,0E0,0E0,0E0,3.0529227E0,2.4289284E1,3.4322502E1,2.0183472E1,1.5605331E1,0E0,6.025074E0,3.292649E1,0E0,0E0,0E0,0E0,0E0,2.0282959E1,0E0,1.4675354E1,0E0,9.98262E0,0E0,0E0,4.0062782E1,2.166993E1,0E0,0E0,0E0,0E0,0E0,0E0,0E0,0E0,0E0,0E0],"parents":[2147483647,0,0,1,1,2,2,3,3,4,4,6,6,8,8,9,9,10,10,11,11,12,12,13,13,18,18,19,19,21,21,22,22,24,24,25,25,27,27,28,28,30,30,32,32,37,37,38,38,39,39,40,40,41,41,43,43,44,44,50,50,52,52,54,54,57,57,58,58],"right_children":[2,4,6,8,10,-1,12,-1,14,16,18,20,22,24,-1,-1,-1,-1,26,28,-1,30,32,-1,34,36,-1,38,40,-1,42,-1,44,-1,-1,-1,-1,46,48,50,52,54,-1,56,58,-1,-1,-1,-1,-1,60,-1,62,-1,64,-1,-1,66,68,-1,-1,-1,-1,-1,-1,-1,-1,-1,-1],"split_conditions":[2.2222222E-1,1.6666667E-1,1E0,2E0,4.296875E-1,-1.4346817E-2,2.7E1,3.0172972E-3,1E0,3E0,2.1E1,2E0,4E0,3E0,-1.378757E-2,3.8220584E-2,-1.4363063E-2,2.5872624E-2,1.15238846E2,1.1E1,-1.4362418E-2,3.3333334E-1,3.6552734E0,-1.3122799E-2,7E0,3E0,-1.369624E-2,3.229883E1,4E0,-1.4379493E-2,6.0866644E2,-1.4372403E-2,2E0,3.5502847E-2,-1.43483495E-2,-1.4372986E-2,1.8722754E-2,5.3E1,1E0,3.3333334E-1,2.3545974E-1,4E0,-2.5110585E-3,1.24E2,1.1E1,-1.4424001E-2,3.6154357E-3,4.756176E-2,-4.8662812E-5,-6.38261E-3,3E0,4.051265E-3,1E0,5.396338E-3,4.568629E-1,-1.4401413E-2,6.440538E-3,7E0,7E0,3.607388E-2,2.148568E-3,4.3718353E-2,2.847512E-2,4.0464744E-2,2.0019293E-2,-1.0667944E-2,4.2085987E-2,-1.4392897E-2,2.8500631E-2],"split_indices":[47,47,36,24,32,0,0,0,9,5,0,36,44,21,0,0,0,0,31,24,0,47,32,0,19,5,0,32,44,0,31,0,23,0,0,0,0,7,5,47,35,2,0,7,24,0,0,0,0,0,37,0,46,0,35,0,0,37,43,0,0,0,0,0,0,0,0,0,0],"split_type":[0,0,0,0,0,0,0,0,0,0,0,0,0,0,0,0,0,0,0,0,0,0,0,0,0,0,0,0,0,0,0,0,0,0,0,0,0,0,0,0,0,0,0,0,0,0,0,0,0,0,0,0,0,0,0,0,0,0,0,0,0,0,0,0,0,0,0,0,0],"sum_hessian":[5.217751E2,3.3033966E2,1.9143542E2,2.9075137E2,3.9588272E1,3.2747616E1,1.586878E2,2.4882426E0,2.8826312E2,6.5293503E0,3.305892E1,8.3037315E1,7.565049E1,2.3065838E1,2.651973E2,4.1997414E0,2.329609E0,3.0205097E0,3.0038412E1,8.03325E1,2.7048209E0,2.6427677E1,4.922281E1,1.7709526E1,5.3563123E0,6.922982E0,2.3115429E1,1.120776E1,6.912473E1,4.8901935E0,2.1537483E1,1.8059397E1,3.1163412E1,2.2087772E0,3.1475348E0,4.691775E0,2.2312074E0,4.974659E0,6.2331014E0,2.1112705E1,4.801203E1,1.8579754E1,2.9577298E0,1.3893428E1,1.7269985E1,2.959243E0,2.015416E0,4.201551E0,2.0315504E0,3.8813097E0,1.7231396E1,2.0563014E0,4.595573E1,2.6123219E0,1.5967432E1,1.1807774E1,2.0856547E0,9.397593E0,7.872392E0,1.4567204E1,2.664191E0,3.5508305E1,1.0447423E1,1.1857153E1,4.1102796E0,2.5102663E0,6.887326E0,5.845165E0,2.0272274E0],"tree_param":{"num_deleted":"0","num_feature":"49","num_nodes":"69","size_leaf_vector":"1"}},{"base_weights":[-1.8897247E-1,-1.1461923E0,9.878615E-1,-1.1642051E0,-1.5700184E-1,-1.4303788E-2,1.4088609E0,3.5250364E-3,-1.1767883E0,-1.4323606E-2,1.7533736E-2,2.4902747E0,5.9860504E-1,-7.320945E-1,-1.3722294E-2,2.6668282E0,-1.4330407E-2,1.5468585E0,-7.5650823E-1,-1.2975135E-2,4.9297553E-1,-2.3693667E-1,2.8254838E0,1.955501E0,-7.515497E-1,-1.1236628E0,1.202659E0,-1.4322314E-2,2.763519E-2,-1.4455689E-2,1.0433275E-2,2.0244071E0,3.2850149E0,6.379068E-1,2.7215228E0,-1.4355125E-2,4.728681E-3,-1.3569999E-2,-5.460873E-5,-1.4389218E-2,3.1803164E0,2.8544297E0,1.09892905E-1,3.4646828E0,1.4129455E-2,2.0362475E0,-1.0825171E-2,2.9624712E0,-1.4422729E-2,4.8024427E-2,2.3162376E-2,3.7933648E-2,-1.4371726E-2,-8.646637E-3,2.9112304E-2,3.3738572E-2,4.4352096E-2,-1.4460294E-2,3.4173697E-2,4.3587115E-2,2.7804883E-2],"categories":[],"categories_nodes":[],"categories_segments":[],"categories_sizes":[],"default_left":[0,0,0,0,0,0,0,0,0,0,0,0,0,0,0,0,0,0,0,0,0,0,0,0,0,0,0,0,0,0,0,0,0,0,0,0,0,0,0,0,0,0,0,0,0,0,0,0,0,0,0,0,0,0,0,0,0,0,0,0,0],"id":2,"left_children":[1,3,5,7,9,-1,11,-1,13,-1,-1,15,17,19,-1,21,-1,23,25,-1,27,29,31,33,35,37,39,-1,-1,-1,-1,41,43,45,47,-1,-1,-1,-1,-1,49,51,53,55,-1,57,-1,59,-1,-1,-1,-1,-1,-1,-1,-1,-1,-1,-1,-1,-1],"loss_changes":[5.946108E2,5.186432E0,2.2458562E2,5.3096924E0,9.869939E0,0E0,1.7479535E2,0E0,4.6703186E0,0E0,0E0,5.6691406E1,1.4654256E2,1.1101635E1,0E0,3.7598755E1,0E0,6.3015564E1,3.3771194E1,0E0,1.8969831E1,5.1089234E0,2.8485779E1,5.749469E1,6.140599E0,3.393219E0,3.627619E1,0E0,0E0,0E0,0E0,4.4826576E1,1.7980469E1,4.6723743E1,3.469513E1,0E0,0E0,0E0,0E0,0E0,4.975586E0,4.068129E1,1.8398247E1,9.950623E0,0E0,3.6509754E1,0E0,1.52595215E1,0E0,0E0,0E0,0E0,0E0,0E0,0E0,0E0,0E0,0E0,0E0,0E0,0E0],"parents":[2147483647,0,0,1,1,2,2,3,3,4,4,6,6,8,8,11,11,12,12,13,13,15,15,17,17,18,18,20,20,21,21,22,22,23,23,24,24,25,25,26,26,31,31,32,32,33,33,34,34,40,40,41,41,42,42,43,43,45,45,47,47],"right_children":[2,4,6,8,10,-1,12,-1,14,-1,-1,16,18,20,-1,22,-1,24,26,-1,28,30,32,34,36,38,40,-1,-1,-1,-1,42,44,46,48,-1,-1,-1,-1,-1,50,52,54,56,-1,58,-1,60,-1,-1,-1,-1,-1,-1,-1,-1,-1,-1,-1,-1,-1],"split_conditions":[1.6666667E-1,7E0,1E0,2E0,1.1224609E1,-1.4303788E-2,2.6E1,3.5250364E-3,1E0,-1.4323606E-2,1.7533736E-2,2E0,1E0,3E0,-1.3722294E-2,2.3671113E-1,-1.4330407E-2,1E0,6.25E-1,-1.2975135E-2,2.3E1,8E-1,3.3333334E-1,1.7618415E-1,3.6E1,1.58E2,1E0,-1.4322314E-2,2.763519E-2,-1.4455689E-2,1.0433275E-2,1.536674E-1,4.6E1,3.2E1,3.957927E-1,-1.4355125E-2,4.728681E-3,-1.3569999E-2,-5.460873E-5,-1.4389218E-2,3.6E1,2.4E1,8.888889E-1,5.144579E-1,1.4129455E-2,1E0,-1.0825171E-2,1E0,-1.4422729E-2,4.8024427E-2,2.3162376E-2,3.7933648E-2,-1.4371726E-2,-8.646637E-3,2.9112304E-2,3.3738572E-2,4.4352096E-2,-1.4460294E-2,3.4173697E-2,4.3587115E-2,2.7804883E-2],"split_indices":[47,36,36,24,32,0,0,0,9,0,0,36,39,21,0,35,0,38,47,0,7,28,47,34,0,7,46,0,0,0,0,34,24,0,34,0,0,0,0,0,0,0,25,35,0,17,0,44,0,0,0,0,0,0,0,0,0,0,0,0,0],"split_type":[0,0,0,0,0,0,0,0,0,0,0,0,0,0,0,0,0,0,0,0,0,0,0,0,0,0,0,0,0,0,0,0,0,0,0,0,0,0,0,0,0,0,0,0,0,0,0,0,0,0,0,0,0,0,0,0,0,0,0,0,0],"sum_hessian":[5.278442E2,2.9108215E2,2.3676201E2,2.858764E2,5.205759E0,3.7274265E1,1.9948773E2,2.416471E0,2.8345993E2,3.1552212E0,2.0505376E0,8.544619E1,1.1404155E2,2.180168E1,2.6165826E2,8.161194E1,3.8342485E0,6.709277E1,4.694878E1,1.6278572E1,5.5231066E0,4.228071E0,7.7383865E1,5.696482E1,1.0127949E1,3.9539078E1,7.4097033E0,2.9041667E0,2.61894E0,2.2274215E0,2.0006495E0,2.8209017E1,4.917485E1,2.094265E1,3.602217E1,7.018574E0,3.1093745E0,3.7002197E1,2.536879E0,3.2906685E0,4.119035E0,1.9677801E1,8.531217E0,4.518569E1,3.9891584E0,1.1160841E1,9.78181E0,3.3974316E1,2.0478563E0,2.118985E0,2.00005E0,1.75467E1,2.1311014E0,6.29693E0,2.2342863E0,2.207195E1,2.311374E1,2.5597217E0,8.601119E0,1.2238815E1,2.17355E1],"tree_param":{"num_deleted":"0","num_feature":"49","num_nodes":"61","size_leaf_vector":"1"}},{"base_weights":[-2.5480834E-1,3.402359E-1,-8.44717E-1,-1.42641E-2,5.105319E-1,-9.689753E-1,-1.4667606E-1,1.3117547E0,1.6384742E-1,-1.0209371E0,-2.7714366E-1,1.7834344E0,-8.287868E-1,2.0704064E0,-1.169781E-1,4.507489E-1,-8.620559E-1,-9.0496624E-1,-1.4280522E-2,-8.904327E-1,2.774214E-2,3.1506941E0,-1.4321526E-2,-9.9992424E-1,1.2446974E-2,9.716789E-1,2.6564791E0,-1.3275499E-2,7.7328354E-1,2.889234E-1,2.8801756E0,6.223875E-1,-1.4278548E-2,-2.8177217E-1,-1.0143485E0,1.2063887E-2,-1.4275988E-2,4.748605E-2,1.7332377E-2,2.3133318E-1,-1.4296343E-2,-2.8068587E-1,2.2522948E0,3.1219687E0,6.0275006E-1,-1.4314309E-2,1.7377357E0,1.0470398E-1,2.3115225E0,4.8700724E-2,9.8678E-3,3.308415E-2,-8.641753E-3,-7.5182074E-1,1.6964979E0,-5.7893485E-1,-1.2952916E-2,2.1759277E-2,-1.4394256E-2,2.6104815E-2,-1.4352088E-2,4.0467408E-2,6.4040385E-3,3.7257295E0,2.0911283E0,2.8557409E-2,-1.4344452E-2,2.4600174E0,-8.370223E-4,-3.7570838E-2,1.7809316E0,4.5062877E-2,6.860115E-1,2.844968E-2,-1.4283751E-2,6.9172345E-3,3.1582847E-2,-8.9888674E-1,1.1619008E0,4.7502626E-2,2.9416597E-2,4.2802703E-2,-8.281852E-3,4.404421E-2,1.9440211E-2,5.476141E-3,-6.6549904E-3,4.8348486E-2,8.119953E-3,4.1390467E-2,-1.4311047E-2,-1.2576388E-2,7.2728996E-3,8.703429E-4,2.6592122E-2],"categories":[],"categories_nodes":[],"categories_segments":[],"categories_sizes":[],"default_left":[0,0,0,0,0,0,0,0,0,0,0,0,0,0,0,0,0,0,0,0,0,0,0,0,0,0,1,0,0,0,0,0,0,0,0,0,0,0,0,0,0,0,0,0,0,0,0,0,0,0,0,0,0,0,0,0,0,0,0,0,0,0,0,0,0,0,0,0,0,0,0,0,0,0,0,0,0,0,0,0,0,0,0,0,0,0,0,0,0,0,0,0,0,0,0],"id":3,"left_children":[1,3,5,-1,7,9,11,13,15,17,19,21,23,25,27,29,31,33,-1,35,-1,37,-1,39,-1,41,43,-1,45,47,49,51,-1,53,55,-1,-1,-1,-1,57,-1,59,61,63,65,-1,67,69,71,-1,-1,-1,-1,73,75,77,-1,-1,-1,-1,-1,-1,-1,79,81,-1,-1,83,-1,85,87,-1,89,-1,-1,-1,-1,91,93,-1,-1,-1,-1,-1,-1,-1,-1,-1,-1,-1,-1,-1,-1,-1,-1],"loss_changes":[1.8518312E2,7.165044E1,2.2978409E1,0E0,6.594235E1,8.084396E0,5.270477E1,7.771392E1,4.8771194E1,5.8772125E0,2.6315613E1,4.3596516E1,9.76898E0,3.0155533E1,2.3407564E1,5.0907234E1,2.1555328E1,9.643036E0,0E0,9.35283E0,0E0,1.2256035E1,0E0,8.854916E0,0E0,2.6127003E1,2.9195755E1,0E0,2.6554781E1,4.5234417E1,2.3175339E1,2.4610134E1,0E0,1.9641453E1,6.8868256E0,0E0,0E0,0E0,0E0,1.2249456E1,0E0,2.1093117E1,1.802288E1,1.5494629E1,2.0314697E1,0E0,1.1994606E1,2.6535755E1,2.7586365E1,0E0,0E0,0E0,0E0,2.8543346E1,4.825822E0,1.554201E1,0E0,0E0,0E0,0E0,0E0,0E0,0E0,8.400528E0,4.4017784E1,0E0,0E0,6.9667892E0,0E0,2.9503965E1,2.3088182E1,0E0,2.9866648E1,0E0,0E0,0E0,0E0,7.764658E0,5.5947556E0,0E0,0E0,0E0,0E0,0E0,0E0,0E0,0E0,0E0,0E0,0E0,0E0,0E0,0E0,0E0,0E0],"parents":[2147483647,0,0,1,1,2,2,4,4,5,5,6,6,7,7,8,8,9,9,10,10,11,11,12,12,13,13,14,14,15,15,16,16,17,17,19,19,21,21,23,23,25,25,26,26,28,28,29,29,30,30,31,31,33,33,34,34,39,39,41,41,42,42,43,43,44,44,46,46,47,47,48,48,53,53,54,54,55,55,63,63,64,64,67,67,69,69,70,70,72,72,77,77,78,78],"right_children":[2,4,6,-1,8,10,12,14,16,18,20,22,24,26,28,30,32,34,-1,36,-1,38,-1,40,-1,42,44,-1,46,48,50,52,-1,54,56,-1,-1,-1,-1,58,-1,60,62,64,66,-1,68,70,72,-1,-1,-1,-1,74,76,78,-1,-1,-1,-1,-1,-1,-1,80,82,-1,-1,84,-1,86,88,-1,90,-1,-1,-1,-1,92,94,-1,-1,-1,-1,-1,-1,-1,-1,-1,-1,-1,-1,-1,-1,-1,-1],"split_conditions":[1E0,1E0,4E1,-1.42641E-2,1.25E-1,8E0,4.3E1,3E0,6.45627E-1,3E0,6.3958806E-1,1E0,6.1728394E-1,3.75E-1,2.6264873E-1,6.3958806E-1,1E0,1E0,-1.4280522E-2,9E0,2.774214E-2,1.4624809E-1,-1.4321526E-2,1E0,1.2446974E-2,8E0,3E0,-1.3275499E-2,1E0,9.8737305E1,1E0,3E0,-1.4278548E-2,8.5714287E-1,-7.7110773E-1,1.2063887E-2,-1.4275988E-2,4.748605E-2,1.7332377E-2,5E0,-1.4296343E-2,1.2358398E1,4E0,3E1,3.643325E-1,-1.4314309E-2,3.6226404E-1,3E0,5.555556E-1,4.8700724E-2,9.8678E-3,3.308415E-2,-8.641753E-3,8E0,5E0,4.6886945E-1,-1.2952916E-2,2.1759277E-2,-1.4394256E-2,2.6104815E-2,-1.4352088E-2,4.0467408E-2,6.4040385E-3,1E0,2E0,2.8557409E-2,-1.4344452E-2,2E0,-8.370223E-4,2.8E1,2E0,4.5062877E-2,3E0,2.844968E-2,-1.4283751E-2,6.9172345E-3,3.1582847E-2,3E0,3.3E1,4.7502626E-2,2.9416597E-2,4.2802703E-2,-8.281852E-3,4.404421E-2,1.9440211E-2,5.476141E-3,-6.6549904E-3,4.8348486E-2,8.119953E-3,4.1390467E-2,-1.4311047E-2,-1.2576388E-2,7.2728996E-3,8.703429E-4,2.6592122E-2],"split_indices":[39,36,24,0,27,5,24,23,35,5,35,22,29,28,35,35,44,23,0,24,0,34,0,23,0,19,5,0,14,32,1,3,0,25,30,0,0,0,0,44,0,32,2,0,35,0,33,6,25,0,0,0,0,7,44,35,0,0,0,0,0,0,0,14,44,0,0,2,0,0,21,0,7,0,0,0,0,21,0,0,0,0,0,0,0,0,0,0,0,0,0,0,0,0,0],"split_type":[0,0,0,0,0,0,0,0,0,0,0,0,0,0,0,0,0,0,0,0,0,0,0,0,0,0,0,0,0,0,0,0,0,0,0,0,0,0,0,0,0,0,0,0,0,0,0,0,0,0,0,0,0,0,0,0,0,0,0,0,0,0,0,0,0,0,0,0,0,0,0,0,0,0,0,0,0,0,0,0,0,0,0,0,0,0,0,0,0,0,0,0,0,0,0],"sum_hessian":[5.275543E2,2.6263394E2,2.6492038E2,2.5235804E1,2.3739813E2,2.2488797E2,4.0032417E1,7.169754E1,1.6570058E2,2.0917706E2,1.57108965E1,1.0453333E1,2.9579086E1,4.6830654E1,2.4866888E1,1.2948831E2,3.6212276E1,1.4146434E2,6.771273E1,1.2829946E1,2.8809507E0,7.217965E0,3.2353685E0,2.7169716E1,2.4093704E0,1.629055E1,3.0540106E1,1.1366839E1,1.3500048E1,1.21401764E2,8.086547E0,7.701502E0,2.8510773E1,2.1122406E1,1.20341934E2,2.050504E0,1.0779442E1,4.377033E0,2.8409314E0,4.807396E0,2.236232E1,8.236124E0,8.054425E0,2.4896996E1,5.6431103E0,4.3343267E0,9.165721E0,1.1126755E2,1.0134214E1,4.7253485E0,3.361198E0,2.8936896E0,4.807812E0,1.7067205E1,4.055201E0,2.790374E1,9.2438194E1,2.2617836E0,2.5456123E0,2.2757514E0,5.960373E0,4.506247E0,3.5481784E0,1.5700837E1,9.196159E0,2.7830882E0,2.8600218E0,6.553225E0,2.612496E0,1.02562294E2,8.705253E0,4.991629E0,5.1425858E0,2.3102193E0,1.4756986E1,2.0394087E0,2.0157921E0,2.3571539E1,4.332201E0,1.10269165E1,4.67392E0,5.7465034E0,3.449656E0,2.2292E0,4.3240256E0,5.267348E1,4.988881E1,2.5995297E0,6.105723E0,2.0372393E0,3.1053462E0,2.0704185E1,2.867353E0,2.2665596E0,2.0656412E0],"tree_param":{"num_deleted":"0","num_feature":"49","num_nodes":"95","size_leaf_vector":"1"}},{"base_weights":[-2.530715E-1,-1.1875737E0,9.0735966E-1,2.1496739E-3,-1.3567777E-2,-1.4226118E-2,1.3249211E0,2.6323433E0,8.814487E-1,1.731812E0,3.413845E0,3.9893726E-1,2.6004243E0,2.2501948E0,-1.1158034E-2,4.6321172E-2,2.7561877E0,1.3273383E0,-4.44863E-2,2.860578E0,-1.4313986E-2,-1.4412117E-2,2.6801836E0,4.427801E-2,1.8174491E0,-5.376078E-1,2.4519713E0,3.8099867E-1,-1.0935938E0,3.0986204E0,6.0480325E-3,3.2134764E0,9.655414E-1,4.128659E-2,-4.57765E-3,7.822925E-1,-1.4309201E-2,2.8893564E0,-1.44435875E-2,3.5801735E-2,2.5269132E0,4.5969992E-4,-1.4288249E-2,1.8131744E0,3.5826313E0,2.8532289E-2,4.6218067E-2,-1.4603408E-2,3.6399107E-2,-7.4953134E-3,2.3011334E-2,2.394828E-2,4.6975415E-2,-9.622667E-3,1.1679138E-2,3.9439403E-2,1.1106028E-2,4.83431E-3,4.0741827E-2,3.6316633E-2,4.593232E-2],"categories":[],"categories_nodes":[],"categories_segments":[],"categories_sizes":[],"default_left":[0,0,0,0,0,0,0,0,0,0,0,0,0,0,0,0,0,0,0,0,0,0,0,0,0,0,0,0,0,0,0,0,0,0,0,0,0,0,0,1,0,0,0,0,0,0,0,0,0,0,0,0,0,0,0,0,0,0,0,0,0],"id":4,"left_children":[1,3,5,-1,-1,-1,7,9,11,13,15,17,19,21,-1,-1,23,25,27,29,-1,-1,31,-1,33,35,37,39,41,43,-1,45,47,-1,-1,49,-1,51,-1,53,55,-1,-1,57,59,-1,-1,-1,-1,-1,-1,-1,-1,-1,-1,-1,-1,-1,-1,-1,-1],"loss_changes":[5.6572723E2,5.0158386E0,2.1045042E2,0E0,0E0,0E0,1.1311777E2,3.4775726E1,1.2083212E2,3.2358513E1,1.1892883E1,4.682901E1,3.211891E1,2.9227608E1,0E0,0E0,1.4689278E1,7.7118515E1,3.436387E1,1.6561386E1,0E0,0E0,1.5714775E1,0E0,3.0394487E1,1.3293721E1,3.7416992E1,4.0571663E1,4.2910976E0,1.68844E1,0E0,7.9074554E0,2.0747961E1,0E0,0E0,8.907666E0,0E0,2.0035965E1,0E0,4.1736637E1,1.1273857E1,0E0,0E0,1.8419E1,3.5048065E0,0E0,0E0,0E0,0E0,0E0,0E0,0E0,0E0,0E0,0E0,0E0,0E0,0E0,0E0,0E0,0E0],"parents":[2147483647,0,0,1,1,2,2,6,6,7,7,8,8,9,9,10,10,11,11,12,12,13,13,16,16,17,17,18,18,19,19,22,22,24,24,25,25,26,26,27,27,28,28,29,29,31,31,32,32,35,35,37,37,39,39,40,40,43,43,44,44],"right_children":[2,4,6,-1,-1,-1,8,10,12,14,16,18,20,22,-1,-1,24,26,28,30,-1,-1,32,-1,34,36,38,40,42,44,-1,46,48,-1,-1,50,-1,52,-1,54,56,-1,-1,58,60,-1,-1,-1,-1,-1,-1,-1,-1,-1,-1,-1,-1,-1,-1,-1,-1],"split_conditions":[1.6666667E-1,2E0,1E0,2.1496739E-3,-1.3567777E-2,-1.4226118E-2,2.3E1,5.2411777E-1,6E-1,1E0,6.22988E-1,4E0,2E0,1.1E1,-1.1158034E-2,4.6321172E-2,2.1E1,3.3333334E-1,3.3E1,3.8E1,-1.4313986E-2,-1.4412117E-2,4E-1,4.427801E-2,3E0,4.1738015E-1,3.005495E-1,8.5714287E-1,1.8181819E-1,4E0,6.0480325E-3,2E0,3.9198717E-1,4.128659E-2,-4.57765E-3,1E1,-1.4309201E-2,6E0,-1.44435875E-2,1E0,1E0,4.5969992E-4,-1.4288249E-2,8E0,2.318816E-1,2.8532289E-2,4.6218067E-2,-1.4603408E-2,3.6399107E-2,-7.4953134E-3,2.3011334E-2,2.394828E-2,4.6975415E-2,-9.622667E-3,1.1679138E-2,3.9439403E-2,1.1106028E-2,4.83431E-3,4.0741827E-2,3.6316633E-2,4.593232E-2],"split_indices":[47,24,36,0,0,0,0,35,47,46,35,37,36,24,0,0,0,47,0,0,0,0,27,0,8,35,34,25,47,3,0,40,34,0,0,19,0,2,0,15,17,0,0,19,34,0,0,0,0,0,0,0,0,0,0,0,0,0,0,0,0],"split_type":[0,0,0,0,0,0,0,0,0,0,0,0,0,0,0,0,0,0,0,0,0,0,0,0,0,0,0,0,0,0,0,0,0,0,0,0,0,0,0,0,0,0,0,0,0,0,0,0,0,0,0,0,0,0,0,0,0,0,0,0,0],"sum_hessian":[5.216837E2,2.8897247E2,2.3271123E2,2.6184847E0,2.86354E2,3.76147E1,1.9509653E2,4.9414585E1,1.4568195E2,2.2958996E1,2.645559E1,1.1375215E2,3.1929789E1,1.9282536E1,3.6764603E0,1.2971624E1,1.3483964E1,3.6768826E1,7.698332E1,2.9916943E1,2.0128472E0,2.096353E0,1.7186182E1,6.0295477E0,7.4544163E0,1.3831851E1,2.2936974E1,5.477023E1,2.2213093E1,2.7139E1,2.7779422E0,1.3108923E1,4.0772595E0,4.083395E0,3.3710217E0,4.9176497E0,8.914202E0,2.0529444E1,2.4075305E0,4.7180717E1,7.589513E0,2.8998537E0,1.931324E1,7.4236183E0,1.9715382E1,7.330891E0,5.778032E0,2.037235E0,2.0400245E0,2.2838047E0,2.6338453E0,1.2759435E1,7.770009E0,2.497131E1,2.2209408E1,4.676947E0,2.9125657E0,4.185391E0,3.238227E0,1.1136072E1,8.579309E0],"tree_param":{"num_deleted":"0","num_feature":"49","num_nodes":"61","size_leaf_vector":"1"}},{"base_weights":[-1.7154792E-1,-1.1516051E0,1.013869E0,1.9533858E-3,-1.1636605E0,-1.4183113E-2,1.4296405E0,-9.7289985E-1,-1.4198226E-2,2.043309E0,4.482815E-1,1.7090619E-2,-1.0503902E0,2.205645E0,-1.4295565E-2,1.7234764E0,-4.5685112E-1,-1.1086241E0,1.0293904E-2,1.6205544E0,3.0177343E0,-1.432981E-2,2.1541646E0,-6.230296E-1,2.112335E-2,-3.5362977E-1,-1.34533895E-2,2.079865E0,8.515094E-2,3.2332468E0,5.97155E-1,2.4773839E0,-1.4433128E-2,-9.070449E-1,8.68175E-1,2.5548814E-2,-1.422046E-2,2.2568803E0,-1.448589E-2,1.9709262E0,-1.4319339E-2,3.348563E0,8.886648E-3,-1.4388214E-2,2.8074758E-2,6.4274925E-1,2.9191067E0,9.723032E-2,-1.1151582E0,-1.4316246E-2,1.9893008E0,1.9549811E-2,3.5516214E-2,-6.1740563E-4,4.2082187E-2,4.1522216E-2,2.8476272E-2,-1.44143095E-2,3.2435138E-2,1.4605089E-2,3.8662445E-2,-1.0468566E-2,2.3593828E-2,-1.3768527E-2,-1.669179E-3,2.357753E-3,3.9281365E-2],"categories":[],"categories_nodes":[],"categories_segments":[],"categories_sizes":[],"default_left":[0,0,0,0,0,0,0,0,0,0,0,0,0,0,0,0,0,0,0,0,1,0,1,0,0,0,0,0,0,0,0,1,0,0,1,0,0,0,0,0,0,0,0,0,0,0,0,1,0,0,1,0,0,0,0,0,0,0,0,0,0,0,0,0,0,0,0],"id":5,"left_children":[1,3,5,-1,7,-1,9,11,-1,13,15,-1,17,19,-1,21,23,25,-1,27,29,-1,31,33,-1,35,-1,37,39,41,43,45,-1,47,49,-1,-1,51,-1,53,-1,55,-1,-1,-1,57,59,61,63,-1,65,-1,-1,-1,-1,-1,-1,-1,-1,-1,-1,-1,-1,-1,-1,-1,-1],"loss_changes":[6.232356E2,4.68869E0,2.2898996E2,0E0,5.1226196E0,0E0,1.2356644E2,1.8268166E1,0E0,6.778961E1,9.111613E1,0E0,1.0507095E1,5.717621E1,0E0,4.221691E1,1.7841362E1,5.4934387E0,0E0,4.9325653E1,2.6287476E1,0E0,3.1767395E1,1.825007E1,0E0,2.0560595E1,0E0,3.203325E1,4.1056236E1,1.3057495E1,1.4531656E1,2.1216217E1,0E0,7.5653057E0,1.6498363E1,0E0,0E0,2.3872345E1,0E0,2.3858294E1,0E0,1.1891541E1,0E0,0E0,0E0,2.16922E1,1.719635E1,1.2651239E1,2.9812393E0,0E0,1.1956045E1,0E0,0E0,0E0,0E0,0E0,0E0,0E0,0E0,0E0,0E0,0E0,0E0,0E0,0E0,0E0,0E0],"parents":[2147483647,0,0,1,1,2,2,4,4,6,6,7,7,9,9,10,10,12,12,13,13,15,15,16,16,17,17,19,19,20,20,22,22,23,23,25,25,27,27,28,28,29,29,30,30,31,31,33,33,34,34,37,37,39,39,41,41,45,45,46,46,47,47,48,48,50,50],"right_children":[2,4,6,-1,8,-1,10,12,-1,14,16,-1,18,20,-1,22,24,26,-1,28,30,-1,32,34,-1,36,-1,38,40,42,44,46,-1,48,50,-1,-1,52,-1,54,-1,56,-1,-1,-1,58,60,62,64,-1,66,-1,-1,-1,-1,-1,-1,-1,-1,-1,-1,-1,-1,-1,-1,-1,-1],"split_conditions":[1.6666667E-1,2E0,1E0,1.9533858E-3,2E0,-1.4183113E-2,1E0,1.6894154E-1,-1.4198226E-2,2E0,2.6E1,1.7090619E-2,6E0,5E-1,-1.4295565E-2,2.2222222E-1,7.160494E-1,1E0,1.0293904E-2,3.3E1,3E0,-1.432981E-2,3E0,6E-1,2.112335E-2,7.0795E-1,-1.34533895E-2,9E0,3.6776093E-1,5.6E1,6E-1,4E0,-1.4433128E-2,2.8E1,2E0,2.5548814E-2,-1.422046E-2,6.0399354E-2,-1.448589E-2,1.1E1,-1.4319339E-2,3.1E1,8.886648E-3,-1.4388214E-2,2.8074758E-2,6E0,4.0214968E-1,1E1,6.666667E-1,-1.4316246E-2,1E0,1.9549811E-2,3.5516214E-2,-6.1740563E-4,4.2082187E-2,4.1522216E-2,2.8476272E-2,-1.44143095E-2,3.2435138E-2,1.4605089E-2,3.8662445E-2,-1.0468566E-2,2.3593828E-2,-1.3768527E-2,-1.669179E-3,2.357753E-3,3.9281365E-2],"split_indices":[47,24,36,0,23,0,39,35,0,36,0,0,36,47,0,47,29,37,0,0,5,0,5,47,0,30,0,44,35,24,47,37,0,0,5,0,0,33,0,19,0,0,0,0,0,19,35,37,29,0,14,0,0,0,0,0,0,0,0,0,0,0,0,0,0,0,0],"split_type":[0,0,0,0,0,0,0,0,0,0,0,0,0,0,0,0,0,0,0,0,0,0,0,0,0,0,0,0,0,0,0,0,0,0,0,0,0,0,0,0,0,0,0,0,0,0,0,0,0,0,0,0,0,0,0,0,0,0,0,0,0,0,0,0,0,0,0],"sum_hessian":[5.364504E2,2.93662E2,2.4278839E2,2.648923E0,2.9101306E2,3.7606262E1,2.0518213E2,9.4879395E1,1.9613368E2,1.262406E2,7.894153E1,2.8694642E0,9.2009926E1,1.2033508E2,5.9055157E0,3.277148E1,4.617005E1,8.935641E1,2.6535208E0,6.994305E1,5.0392033E1,4.1248493E0,2.8646631E1,4.3090717E1,3.079332E0,8.69935E0,8.065706E1,5.3837643E1,1.6105404E1,4.6272213E1,4.119821E0,2.6180254E1,2.466377E0,3.619674E1,6.89398E0,2.2361352E0,6.463215E0,5.114425E1,2.693396E0,6.7245827E0,9.38082E0,4.418983E1,2.0823824E0,2.0688822E0,2.0509388E0,5.080282E0,2.1099972E1,6.2133346E0,2.9983404E1,2.3739903E0,4.51999E0,3.2040585E1,1.9103662E1,3.118414E0,3.606169E0,3.1767975E1,1.2421857E1,2.729283E0,2.3509994E0,4.9663563E0,1.6133615E1,4.103262E0,2.1100726E0,2.710423E1,2.8791738E0,2.0557091E0,2.4642806E0],"tree_param":{"num_deleted":"0","num_feature":"49","num_nodes":"67","size_leaf_vector":"1"}},{"base_weights":[-2.272024E-1,-1.0098505E0,1.032029E0,-1.1255381E0,-1.3994735E-1,-1.4142026E-2,1.4657687E0,4.545495E-3,-1.1379228E0,1.5911825E0,-7.7486396E-1,2.2149644E0,7.2335815E-1,-1.1563956E0,-1.7512892E-1,2.8454816E0,-1.4300181E-2,-1.1778004E-2,9.589805E-3,-6.7417636E-3,2.3804307E0,1.5291393E0,-4.6471143E-1,-1.3488922E-2,-8.09491E-1,1.737144E-2,-1.4247792E-2,1.6962301E-2,4.6791397E-2,2.5127532E0,-1.427308E-2,1.9429433E0,-5.8393544E-1,-9.3389124E-1,1.5072933E0,-1.2536063E-2,1.9989314E-2,2.81958E0,1.3384526E0,-8.0308E-3,2.2233765E0,-1.43094E-2,1.715738E-2,-1.3659783E-2,5.1557684E-1,-1.4343E-2,3.6787E-2,2.6086495E0,4.4482477E-2,3.4172044E0,-1.1230992E-2,1.7813715E0,3.4342744E0,2.927648E-2,-1.4287866E-2,3.5896983E-2,2.1797817E-2,4.485691E-2,2.5348058E-2,3.487557E-2,1.2224829E-2,2.1793436E-2,4.6307713E-2],"categories":[],"categories_nodes":[],"categories_segments":[],"categories_sizes":[],"default_left":[0,0,0,0,0,0,0,0,0,0,0,0,0,0,0,0,0,0,0,0,0,0,0,0,0,0,0,0,0,0,0,0,0,0,0,0,0,0,0,0,0,0,0,0,0,0,0,0,0,0,0,0,0,0,0,0,0,0,0,0,0,0,0],"id":6,"left_children":[1,3,5,7,9,-1,11,-1,13,15,17,19,21,23,25,27,-1,-1,-1,-1,29,31,33,-1,35,-1,-1,-1,-1,37,-1,39,41,43,45,-1,-1,47,49,-1,51,-1,-1,-1,53,-1,-1,55,-1,57,-1,59,61,-1,-1,-1,-1,-1,-1,-1,-1,-1,-1],"loss_changes":[5.143988E2,3.2393677E1,1.9810667E2,5.375061E0,4.1528076E1,0E0,9.35105E1,0E0,5.0121765E0,3.6322273E1,1.1980043E1,3.8925537E1,8.083946E1,3.5299988E0,9.855579E0,1.225692E1,0E0,0E0,0E0,0E0,3.8095215E1,4.399714E1,3.1574512E1,0E0,2.046914E1,0E0,0E0,0E0,0E0,2.7475403E1,0E0,3.1308868E1,1.1807776E1,1.096537E1,3.1805326E1,0E0,0E0,1.4221313E1,7.657783E1,0E0,2.0367188E1,0E0,0E0,0E0,1.6197062E1,0E0,0E0,1.9606049E1,0E0,5.403679E0,0E0,2.5439949E1,1.0147697E1,0E0,0E0,0E0,0E0,0E0,0E0,0E0,0E0,0E0,0E0],"parents":[2147483647,0,0,1,1,2,2,3,3,4,4,6,6,8,8,9,9,10,10,11,11,12,12,13,13,14,14,15,15,20,20,21,21,22,22,24,24,29,29,31,31,32,32,33,33,34,34,37,37,38,38,40,40,44,44,47,47,49,49,51,51,52,52],"right_children":[2,4,6,8,10,-1,12,-1,14,16,18,20,22,24,26,28,-1,-1,-1,-1,30,32,34,-1,36,-1,-1,-1,-1,38,-1,40,42,44,46,-1,-1,48,50,-1,52,-1,-1,-1,54,-1,-1,56,-1,58,-1,60,62,-1,-1,-1,-1,-1,-1,-1,-1,-1,-1],"split_conditions":[2.2222222E-1,1.6666667E-1,1E0,2E0,2.3E1,-1.4142026E-2,2.7E1,4.545495E-3,6E0,1E0,5.6E-1,8E0,1E0,4.5E1,1.1E1,1E0,-1.4300181E-2,-1.1778004E-2,9.589805E-3,-6.7417636E-3,2E0,1E0,6.25E-1,-1.3488922E-2,5.9375E-1,1.737144E-2,-1.4247792E-2,1.6962301E-2,4.6791397E-2,1E0,-1.427308E-2,3.125E-1,1E0,6.4E-1,1E0,-1.2536063E-2,1.9989314E-2,5.8411133E1,1.25E-1,-8.0308E-3,1.2E1,-1.43094E-2,1.715738E-2,-1.3659783E-2,4.734375E0,-1.4343E-2,3.6787E-2,1.6370332E-1,4.4482477E-2,1.171875E-1,-1.1230992E-2,1.1E1,1E0,2.927648E-2,-1.4287866E-2,3.5896983E-2,2.1797817E-2,4.485691E-2,2.5348058E-2,3.487557E-2,1.2224829E-2,2.1793436E-2,4.6307713E-2],"split_indices":[47,47,36,24,0,0,0,0,36,39,29,24,39,24,24,12,0,0,0,0,36,38,47,0,29,0,0,0,0,46,0,47,20,29,46,0,0,32,27,0,19,0,0,0,32,0,0,34,0,32,0,24,14,0,0,0,0,0,0,0,0,0,0],"split_type":[0,0,0,0,0,0,0,0,0,0,0,0,0,0,0,0,0,0,0,0,0,0,0,0,0,0,0,0,0,0,0,0,0,0,0,0,0,0,0,0,0,0,0,0,0,0,0,0,0,0,0,0,0,0,0,0,0,0,0,0,0,0,0],"sum_hessian":[5.219486E2,3.2188687E2,2.0006177E2,2.8410403E2,3.778282E1,3.1940748E1,1.6812103E2,2.2847E0,2.8181934E2,1.0138781E1,2.7644043E1,8.367804E1,8.4442986E1,2.7651392E2,5.3054285E0,7.04495E0,3.0938308E0,2.3739277E1,3.9047656E0,4.6512575E0,7.902679E1,5.0316795E1,3.412619E1,2.499931E2,2.65208E1,2.0584297E0,3.246999E0,3.453854E0,3.5910962E0,7.625697E1,2.7698107E0,4.2076897E1,8.239901E0,2.7567408E1,6.5587826E0,2.3760859E1,2.7599401E0,6.0459656E1,1.57973175E1,4.0220294E0,3.8054867E1,6.2214956E0,2.0184042E0,2.3179092E1,4.3883147E0,2.5331056E0,4.0256767E0,5.0843544E1,9.61611E0,8.352029E0,7.4452887E0,2.7878712E1,1.0176155E1,2.0263612E0,2.3619537E0,2.7740395E1,2.310315E1,5.6864967E0,2.6655324E0,9.739681E0,1.813903E1,3.1066802E0,7.069475E0],"tree_param":{"num_deleted":"0","num_feature":"49","num_nodes":"63","size_leaf_vector":"1"}},{"base_weights":[-1.5802713E-1,-1.1203427E0,9.1141737E-1,-1.1386417E0,-1.662879E-1,-1.4105293E-2,1.3002354E0,-1.3271916E-2,-8.1275815E-1,1.7127482E-2,-1.4215805E-2,1.8743049E0,4.0102404E-1,-1.585509E-1,-1.413221E-2,2.0249462E0,-1.4265153E-2,-1.3859263E-1,1.7879503E0,-1.1856676E-2,2.5642427E-2,1.1259373E0,2.4192235E0,-4.4478524E-1,1.4217346E0,2.4455683E0,-1.4343572E-2,7.480415E-1,4.4625234E-2,2.2760475E0,3.3326032E0,1.8884767E-2,-6.0985565E-1,-3.283346E-1,3.2622702E0,3.028504E0,1.6244594E-3,-1.5417783E-1,2.1915417E0,2.4442284E0,3.7970662E-2,2.9464155E-2,4.1672476E-2,2.4566783E-2,-7.441188E-1,-1.44060245E-2,1.1441928E-2,4.6126273E-2,2.6438521E-2,3.5107858E0,1.3601698E-2,-1.4429971E-2,2.13621E-2,3.318508E-2,-1.4307559E-2,3.8196485E-2,2.5616826E-2,2.3730287E-2,-1.4411098E-2,1.3152331E-3,-1.1080531E-2,4.34782E-2,2.7980164E-2],"categories":[],"categories_nodes":[],"categories_segments":[],"categories_sizes":[],"default_left":[0,0,0,0,0,0,0,0,0,0,0,0,0,0,0,0,0,0,0,0,0,0,0,0,0,0,0,1,0,0,0,0,0,0,0,0,0,0,0,0,0,0,0,0,0,0,0,0,0,0,0,0,0,0,0,0,0,0,0,0,0,0,0],"id":7,"left_children":[1,3,5,7,9,-1,11,-1,13,-1,-1,15,17,19,-1,21,-1,23,25,-1,-1,27,29,31,33,35,-1,37,-1,39,41,-1,43,45,47,49,-1,51,53,55,57,-1,-1,-1,59,-1,-1,-1,-1,61,-1,-1,-1,-1,-1,-1,-1,-1,-1,-1,-1,-1,-1],"loss_changes":[5.4673474E2,4.8818054E0,2.1123831E2,3.1614075E0,9.655365E0,0E0,1.1006775E2,0E0,7.683815E0,0E0,0E0,6.1483032E1,6.218039E1,2.3247936E1,0E0,4.401468E1,0E0,2.8575844E1,4.677967E1,0E0,0E0,4.03638E1,1.1287506E1,1.745866E1,3.160479E1,2.569777E1,0E0,4.3479866E1,0E0,2.8087524E1,3.0033264E0,0E0,1.7330297E1,6.377872E0,3.6118202E0,1.3451981E1,0E0,4.712339E1,3.3025463E1,1.1559479E1,1.4112443E1,0E0,0E0,0E0,8.986549E0,0E0,0E0,0E0,0E0,4.1954346E0,0E0,0E0,0E0,0E0,0E0,0E0,0E0,0E0,0E0,0E0,0E0,0E0,0E0],"parents":[2147483647,0,0,1,1,2,2,3,3,4,4,6,6,8,8,11,11,12,12,13,13,15,15,17,17,18,18,21,21,22,22,23,23,24,24,25,25,27,27,29,29,30,30,32,32,33,33,34,34,35,35,37,37,38,38,39,39,40,40,44,44,49,49],"right_children":[2,4,6,8,10,-1,12,-1,14,-1,-1,16,18,20,-1,22,-1,24,26,-1,-1,28,30,32,34,36,-1,38,-1,40,42,-1,44,46,48,50,-1,52,54,56,58,-1,-1,-1,60,-1,-1,-1,-1,62,-1,-1,-1,-1,-1,-1,-1,-1,-1,-1,-1,-1,-1],"split_conditions":[1.6666667E-1,6E0,1E0,4.5E1,4.5969373E2,-1.4105293E-2,1E0,-1.3271916E-2,2E0,1.7127482E-2,-1.4215805E-2,2E0,3.7E1,2.5278767E2,-1.413221E-2,3.3333334E-1,-1.4265153E-2,6E-1,3.0159616E-1,-1.1856676E-2,2.5642427E-2,1E0,7E0,1E0,9.2E1,6E1,-1.4343572E-2,1E0,4.4625234E-2,5E0,1E0,1.8884767E-2,1E0,2.318816E-1,-7.7110773E-1,2.256749E2,1.6244594E-3,4E0,2.6E1,1.1E1,6.826172E-1,2.9464155E-2,4.1672476E-2,2.4566783E-2,1.15401855E2,-1.44060245E-2,1.1441928E-2,4.6126273E-2,2.6438521E-2,3E0,1.3601698E-2,-1.4429971E-2,2.13621E-2,3.318508E-2,-1.4307559E-2,3.8196485E-2,2.5616826E-2,2.3730287E-2,-1.4411098E-2,1.3152331E-3,-1.1080531E-2,4.34782E-2,2.7980164E-2],"split_indices":[47,36,36,24,31,0,39,0,23,0,0,36,24,31,0,47,0,47,34,0,0,18,43,6,7,7,0,15,0,16,14,0,21,34,30,31,0,21,24,7,32,0,0,0,31,0,0,0,0,2,0,0,0,0,0,0,0,0,0,0,0,0,0],"split_type":[0,0,0,0,0,0,0,0,0,0,0,0,0,0,0,0,0,0,0,0,0,0,0,0,0,0,0,0,0,0,0,0,0,0,0,0,0,0,0,0,0,0,0,0,0,0,0,0,0,0,0,0,0,0,0,0,0,0,0,0,0,0,0],"sum_hessian":[5.3125226E2,2.7963187E2,2.5162039E2,2.7436932E2,5.262539E0,3.839724E1,2.1322316E2,2.4751314E2,2.6856182E1,2.0711753E0,3.1913633E0,1.3013986E2,8.308329E1,1.0760334E1,1.6095848E1,1.24175316E2,5.9645505E0,5.9812016E1,2.3271273E1,7.872441E0,2.8878937E0,3.7856792E1,8.631852E1,5.000024E1,9.811775E0,1.9151184E1,4.1200895E0,3.3385433E1,4.4713573E0,7.4621544E1,1.16969795E1,3.6193519E0,4.638089E1,5.029504E0,4.782271E0,1.5281254E1,3.8699303E0,2.0544617E1,1.2840818E1,6.9405975E1,5.215565E0,3.8306406E0,7.866339E0,2.1345756E0,4.4246315E1,2.9486394E0,2.0808644E0,2.5360312E0,2.2462397E0,1.2087463E1,3.19379E0,1.3262316E1,7.2823005E0,1.0566985E1,2.273834E0,1.1116221E1,5.8289757E1,2.0293152E0,3.1862497E0,9.524636E0,3.472168E1,9.131916E0,2.9555476E0],"tree_param":{"num_deleted":"0","num_feature":"49","num_nodes":"63","size_leaf_vector":"1"}},{"base_weights":[-3.0875716E-1,-1.0542024E0,9.1300124E-1,-1.1312406E0,-1.4611338E-1,1.5621145E0,2.8994286E-2,-7.678216E-1,-1.3157207E-2,-6.565759E-1,1.5167023E0,4.950495E-3,1.8016436E0,1.3734292E0,-5.1412094E-1,-1.2989483E-2,8.11454E-1,-1.0830855E0,1.5027365E-2,3.8181875E-2,-1.4194193E-2,2.4273517E-2,-7.6996315E-1,1.9520562E0,-3.8150087E-2,2.0951896E0,-1.4255897E-2,-9.584267E-1,7.426359E-1,-1.4139389E-2,3.6139935E-2,-1.4201243E-2,2.716079E-4,-1.42960865E-2,-2.83156E-2,1.0113528E0,2.1018748E0,2.0439193E-2,-1.423526E-2,2.54593E0,-1.43859945E-2,-1.347688E-2,3.483137E-2,-2.4422841E-1,2.6931677E0,1.6276691E-2,-1.4445291E-2,-1.4311016E-2,2.1236608E0,2.2319744E0,7.9681736E-1,1.0313967E0,3.0939782E0,-1.4200386E-2,2.2262791E-2,4.018187E-2,1.873292E-2,4.138833E-2,8.6875284E-1,1.9400378E0,2.969663E0,-1.438724E-2,3.822908E-2,-1.444874E-2,3.553557E-2,1.9789312E-2,3.902247E-2,-1.4410489E-2,3.380163E-2,-1.4294037E-2,2.3639267E-2,1.4689495E-2,3.7264526E-2],"categories":[],"categories_nodes":[],"categories_segments":[],"categories_sizes":[],"default_left":[0,0,0,0,0,0,0,0,0,0,0,0,0,0,0,0,0,0,0,0,0,0,0,0,0,0,0,0,0,0,0,0,0,0,0,0,0,0,0,0,0,0,0,0,0,0,0,0,0,0,0,0,0,0,0,0,0,0,0,0,0,0,0,0,0,0,0,0,0,0,0,0,0],"id":8,"left_children":[1,3,5,7,9,11,13,15,-1,17,19,21,23,25,27,-1,29,31,-1,-1,-1,-1,33,35,37,39,-1,41,43,-1,-1,-1,-1,-1,45,47,49,-1,-1,51,-1,-1,-1,53,55,-1,-1,-1,57,59,61,63,65,-1,-1,-1,-1,-1,67,69,71,-1,-1,-1,-1,-1,-1,-1,-1,-1,-1,-1,-1],"loss_changes":[4.6612592E2,2.2236725E1,1.1128699E2,3.4726562E0,2.1099022E1,4.170996E1,5.995781E1,1.452629E1,0E0,1.6108826E1,3.0118885E1,2.4748953E1,2.6820251E1,4.4925846E1,3.265794E1,0E0,2.3079716E1,3.000843E0,0E0,0E0,0E0,0E0,4.0162187E0,1.2626648E1,1.6512213E1,2.8152641E1,0E0,4.0793015E1,2.9405573E1,0E0,0E0,0E0,0E0,0E0,8.0355425E0,3.1178791E1,1.3121796E1,0E0,0E0,1.3576355E1,0E0,0E0,0E0,2.2721502E1,4.578968E0,0E0,0E0,0E0,1.5954674E1,1.5134552E1,3.747831E1,2.12E1,5.77359E0,0E0,0E0,0E0,0E0,0E0,2.0703539E1,2.4369904E1,1.087178E1,0E0,0E0,0E0,0E0,0E0,0E0,0E0,0E0,0E0,0E0,0E0,0E0],"parents":[2147483647,0,0,1,1,2,2,3,3,4,4,5,5,6,6,7,7,9,9,10,10,11,11,12,12,13,13,14,14,16,16,17,17,22,22,23,23,24,24,25,25,27,27,28,28,34,34,35,35,36,36,39,39,43,43,44,44,48,48,49,49,50,50,51,51,52,52,58,58,59,59,60,60],"right_children":[2,4,6,8,10,12,14,16,-1,18,20,22,24,26,28,-1,30,32,-1,-1,-1,-1,34,36,38,40,-1,42,44,-1,-1,-1,-1,-1,46,48,50,-1,-1,52,-1,-1,-1,54,56,-1,-1,-1,58,60,62,64,66,-1,-1,-1,-1,-1,68,70,72,-1,-1,-1,-1,-1,-1,-1,-1,-1,-1,-1,-1],"split_conditions":[2.2222222E-1,2E-1,1E0,1E0,2E0,3.125E-1,2.4E1,3E0,-1.3157207E-2,6.666667E-1,1E0,2.3E1,5E0,3.0159616E-1,1E0,-1.2989483E-2,3.988783E2,1E1,1.5027365E-2,3.8181875E-2,-1.4194193E-2,2.4273517E-2,2.00001E0,-6.48703E-1,1E0,1E0,-1.4255897E-2,7.5E-1,6E-1,-1.4139389E-2,3.6139935E-2,-1.4201243E-2,2.716079E-4,-1.42960865E-2,2E0,1E0,3.7E1,2.0439193E-2,-1.423526E-2,1E0,-1.43859945E-2,-1.347688E-2,3.483137E-2,2E0,1.6528925E-1,1.6276691E-2,-1.4445291E-2,-1.4311016E-2,5E0,2E0,1.1E1,2.2107606E-1,2.2E1,-1.4200386E-2,2.2262791E-2,4.018187E-2,1.873292E-2,4.138833E-2,3.6E1,2.0576172E0,3.9375442E-1,-1.438724E-2,3.822908E-2,-1.444874E-2,3.553557E-2,1.9789312E-2,3.902247E-2,-1.4410489E-2,3.380163E-2,-1.4294037E-2,2.3639267E-2,1.4689495E-2,3.7264526E-2],"split_indices":[47,47,39,9,40,47,0,21,0,29,39,0,16,34,46,0,31,3,0,0,0,0,14,30,38,46,0,29,47,0,0,0,0,0,21,14,0,0,0,22,0,0,0,6,29,0,0,0,19,11,3,34,0,0,0,0,0,0,0,32,35,0,0,0,0,0,0,0,0,0,0,0,0],"split_type":[0,0,0,0,0,0,0,0,0,0,0,0,0,0,0,0,0,0,0,0,0,0,0,0,0,0,0,0,0,0,0,0,0,0,0,0,0,0,0,0,0,0,0,0,0,0,0,0,0,0,0,0,0,0,0,0,0,0,0,0,0,0,0,0,0,0,0,0,0,0,0,0,0],"sum_hessian":[5.118021E2,3.1786163E2,1.9394046E2,2.930044E2,2.4857243E1,1.11827255E2,8.211321E1,2.412931E1,2.6887506E2,1.9018795E1,5.8384485E0,1.4908482E1,9.691878E1,2.3626888E1,5.848632E1,1.9437626E1,4.6916857E0,1.5656297E1,3.3624978E0,3.4935596E0,2.3448887E0,3.960304E0,1.0948178E1,8.959403E1,7.3247423E0,1.8545933E1,5.0809565E0,4.321014E1,1.5276179E1,2.5163188E0,2.175367E0,1.35391865E1,2.1171105E0,6.5677633E0,4.380415E0,1.23087635E1,7.728527E1,2.9159663E0,4.408776E0,1.6356766E1,2.1891673E0,4.0847015E1,2.3631284E0,1.0143925E1,5.1322546E0,2.0139785E0,2.3664362E0,4.039167E0,8.269596E0,7.027914E1,7.006135E0,4.34623E0,1.2010535E1,6.9615555E0,3.182369E0,2.802537E0,2.3297179E0,3.71635E0,4.5532465E0,5.035263E1,1.9926506E1,3.890956E0,3.115179E0,2.076043E0,2.2701871E0,2.5263941E0,9.484141E0,2.2647645E0,2.2884817E0,2.2663796E0,4.808625E1,3.259728E0,1.6666777E1],"tree_param":{"num_deleted":"0","num_feature":"49","num_nodes":"73","size_leaf_vector":"1"}},{"base_weights":[-1.6958825E-1,1.0162005E0,-1.120321E0,-1.4054859E-2,1.3998333E0,-1.1380671E0,-1.1683709E-1,1.5860358E0,-1.4186879E-2,6.6070573E-4,-1.1502931E0,1.725002E-2,-1.4171812E-2,2.0386922E0,7.899642E-1,-7.42444E-1,-1.34119345E-2,2.3438869E0,8.4530866E-1,1.6116024E0,-3.5368022E-1,-1.2804047E-2,4.1918948E-1,2.8915803E0,1.8928218E0,4.012456E-1,3.9610274E-2,7.806258E-1,2.8253803E0,1.4890275E0,-8.489215E-1,3.2996636E-2,-1.4113721E-2,2.0871093E0,3.2212594E0,3.9128352E-2,1.5424702E0,3.4508727E-2,-2.8260335E-1,1.6222775E0,-6.7666495E-1,9.924881E-3,3.195746E0,-3.072526E-3,3.8769357E-2,-1.3412494E-2,8.586008E-3,9.641231E-3,3.7571322E-2,3.9530832E-2,2.1809623E-2,5.749255E-3,2.4069568E-2,-1.4381313E-2,1.2069421E-2,2.4020968E-2,-1.4466386E-2,-1.4332225E-2,1.147292E-2,3.9619304E-2,2.012513E-2],"categories":[],"categories_nodes":[],"categories_segments":[],"categories_sizes":[],"default_left":[0,0,0,0,0,0,0,0,0,0,0,0,0,0,0,0,0,0,0,0,0,0,0,0,0,0,0,0,0,0,0,0,0,0,0,0,0,0,0,0,0,0,0,0,0,0,0,0,0,0,0,0,0,0,0,0,0,0,0,0,0],"id":9,"left_children":[1,3,5,-1,7,9,11,13,-1,-1,15,-1,-1,17,19,21,-1,23,25,27,29,-1,31,33,35,37,-1,39,41,43,45,-1,-1,47,49,-1,51,-1,53,55,57,-1,59,-1,-1,-1,-1,-1,-1,-1,-1,-1,-1,-1,-1,-1,-1,-1,-1,-1,-1],"loss_changes":[5.901873E2,2.0192763E2,5.1740723E0,0E0,9.844202E1,4.176544E0,9.428818E0,6.7057434E1,0E0,0E0,4.1601562E0,0E0,0E0,4.320807E1,6.3387215E1,1.0414342E1,0E0,2.3338745E1,2.8522718E1,3.9593124E1,2.5737078E1,0E0,2.4082863E1,1.1315216E1,2.8466599E1,3.753642E1,0E0,2.8580929E1,1.1505997E1,2.0411753E1,1.2067091E1,0E0,0E0,1.8926147E1,1.0773499E1,0E0,2.568599E1,0E0,2.1989515E1,2.1542404E1,8.530367E0,0E0,5.859833E0,0E0,0E0,0E0,0E0,0E0,0E0,0E0,0E0,0E0,0E0,0E0,0E0,0E0,0E0,0E0,0E0,0E0,0E0],"parents":[2147483647,0,0,1,1,2,2,4,4,5,5,6,6,7,7,10,10,13,13,14,14,15,15,17,17,18,18,19,19,20,20,22,22,23,23,24,24,25,25,27,27,28,28,29,29,30,30,33,33,34,34,36,36,38,38,39,39,40,40,42,42],"right_children":[2,4,6,-1,8,10,12,14,-1,-1,16,-1,-1,18,20,22,-1,24,26,28,30,-1,32,34,36,38,-1,40,42,44,46,-1,-1,48,50,-1,52,-1,54,56,58,-1,60,-1,-1,-1,-1,-1,-1,-1,-1,-1,-1,-1,-1,-1,-1,-1,-1,-1,-1],"split_conditions":[8.181818E-1,1E0,7E0,-1.4054859E-2,2E0,2E0,2.4406476E-1,1E0,-1.4186879E-2,6.6070573E-4,1E0,1.725002E-2,-1.4171812E-2,7.1428573E-1,2.9E1,3E0,-1.34119345E-2,2E-1,5E0,1E0,5E-1,-1.2804047E-2,7E0,3.312264E-1,2.1E1,2.1E1,3.9610274E-2,3E0,4E0,1E0,6.666667E-1,3.2996636E-2,-1.4113721E-2,9E0,3.1E1,3.9128352E-2,1E0,3.4508727E-2,1E1,3.3333334E-1,1.6850806E0,9.924881E-3,2.3667075E-1,-3.072526E-3,3.8769357E-2,-1.3412494E-2,8.586008E-3,9.641231E-3,3.7571322E-2,3.9530832E-2,2.1809623E-2,5.749255E-3,2.4069568E-2,-1.4381313E-2,1.2069421E-2,2.4020968E-2,-1.4466386E-2,-1.4332225E-2,1.147292E-2,3.9619304E-2,2.012513E-2],"split_indices":[48,36,36,0,36,24,35,39,0,0,9,0,0,48,0,21,0,27,23,25,48,0,19,35,0,0,0,8,37,46,29,0,0,19,0,0,14,0,19,25,33,0,34,0,0,0,0,0,0,0,0,0,0,0,0,0,0,0,0,0,0],"split_type":[0,0,0,0,0,0,0,0,0,0,0,0,0,0,0,0,0,0,0,0,0,0,0,0,0,0,0,0,0,0,0,0,0,0,0,0,0,0,0,0,0,0,0,0,0,0,0,0,0,0,0,0,0,0,0,0,0,0,0,0,0],"sum_hessian":[5.235088E2,2.3295665E2,2.9055212E2,3.381257E1,1.9914407E2,2.8550308E2,5.0490446E0,1.8609186E2,1.3052223E1,2.887712E0,2.8261536E2,2.0649428E0,2.9841015E0,1.1863457E2,6.745728E1,2.2977571E1,2.596378E2,9.447384E1,2.4160732E1,3.9255E1,2.8202282E1,1.7200352E1,5.7772207E0,4.2666603E1,5.180723E1,2.0702759E1,3.457972E0,2.330208E1,1.5952921E1,5.973961E0,2.2228321E1,2.31192E0,3.4653008E0,1.2402677E1,3.026393E1,9.459652E0,4.234758E1,4.2449136E0,1.6457846E1,1.4771118E1,8.530962E0,2.549189E0,1.3403731E1,3.1319342E0,2.8420267E0,1.8372946E1,3.8553755E0,6.206654E0,6.196022E0,2.4944157E1,5.3197727E0,1.5330377E1,2.7017204E1,9.497534E0,6.960312E0,1.2590696E1,2.1804225E0,6.3217793E0,2.2091823E0,1.1002714E1,2.401018E0],"tree_param":{"num_deleted":"0","num_feature":"49","num_nodes":"61","size_leaf_vector":"1"}},{"base_weights":[-1.8628797E-1,-1.127123E0,8.57948E-1,-9.1091603E-1,-1.3898456E-2,-1.4013693E-2,1.2272903E0,2.9343925E-2,-1.017216E0,1.4164673E0,-1.4148693E-2,-1.0810262E0,1.7692208E-2,8.4956306E-1,1.9923818E0,-3.911374E-1,-1.3197537E-2,1.9597161E0,3.2291257E-1,2.2965908E0,-2.0916162E-1,2.6441779E-2,-1.4028673E-2,2.9587166E0,4.0305498E-1,1.168845E0,-7.206016E-1,2.6333137E0,1.5154531E0,-1.4362823E-2,2.2594782E-2,4.1720457E-2,1.5063432E0,-3.2880092E-1,2.6964523E-2,1.6354692E-1,2.14176E0,-8.876482E-2,-1.4274022E-2,2.7715702E0,9.074959E-1,2.9513884E0,6.7523696E-2,-1.4604765E-2,3.7097633E-2,-1.4575869E-2,2.0399204E-2,3.3510555E-2,-1.0658452E-2,3.5474305E-3,2.9728305E-2,-1.0683065E-2,2.633206E-2,7.2985864E-3,3.2447215E-2,-1.4860225E-2,3.4725696E-2,3.8265828E-2,2.3105904E-2,-1.3298933E-2,2.7943276E-2],"categories":[],"categories_nodes":[],"categories_segments":[],"categories_sizes":[],"default_left":[0,0,0,0,0,0,0,0,0,0,0,0,0,0,1,0,0,0,0,0,0,0,0,0,0,0,0,0,0,0,0,0,0,0,0,0,0,0,0,0,0,0,0,0,0,0,0,0,0,0,0,0,0,0,0,0,0,0,0,0,0],"id":10,"left_children":[1,3,5,7,-1,-1,9,-1,11,13,-1,15,-1,17,19,21,-1,23,25,27,29,-1,-1,31,33,35,37,39,41,-1,-1,-1,43,45,-1,47,49,51,-1,53,55,57,59,-1,-1,-1,-1,-1,-1,-1,-1,-1,-1,-1,-1,-1,-1,-1,-1,-1,-1],"loss_changes":[5.0641925E2,5.9972534E0,1.8926924E2,3.246395E1,0E0,0E0,9.7413086E1,0E0,1.3928284E1,6.3012177E1,0E0,4.9166565E0,0E0,5.686483E1,6.411954E1,2.1300476E1,0E0,4.8665627E1,5.8231953E1,2.2124329E1,2.7236343E1,0E0,0E0,2.025795E1,1.7745941E1,3.5633537E1,1.0114936E1,1.4024536E1,5.2680344E1,0E0,0E0,0E0,3.1725012E1,1.8307272E1,0E0,5.552206E1,1.6513298E1,2.823559E1,0E0,1.1410492E1,2.0965813E1,5.004059E0,3.773178E1,0E0,0E0,0E0,0E0,0E0,0E0,0E0,0E0,0E0,0E0,0E0,0E0,0E0,0E0,0E0,0E0,0E0,0E0],"parents":[2147483647,0,0,1,1,2,2,3,3,6,6,8,8,9,9,11,11,13,13,14,14,15,15,17,17,18,18,19,19,20,20,23,23,24,24,25,25,26,26,27,27,28,28,32,32,33,33,35,35,36,36,37,37,39,39,40,40,41,41,42,42],"right_children":[2,4,6,8,-1,-1,10,-1,12,14,-1,16,-1,18,20,22,-1,24,26,28,30,-1,-1,32,34,36,38,40,42,-1,-1,-1,44,46,-1,48,50,52,-1,54,56,58,60,-1,-1,-1,-1,-1,-1,-1,-1,-1,-1,-1,-1,-1,-1,-1,-1,-1,-1],"split_conditions":[1.6666667E-1,2E0,1E0,1.6894154E-1,-1.3898456E-2,-1.4013693E-2,2E0,2.9343925E-2,3.9814416E-1,4E-1,-1.4148693E-2,1E0,1.7692208E-2,2.4E1,3E0,7.0795E-1,-1.3197537E-2,1.536674E-1,1E0,3.1E1,6.25E-1,2.6441779E-2,-1.4028673E-2,3.75E-1,5E0,1.727245E-1,3.4827462E-1,1.04E2,3E0,-1.4362823E-2,2.2594782E-2,4.1720457E-2,3.2905273E1,3.6135623E-1,2.6964523E-2,6.647287E-2,2E1,3.013608E-1,-1.4274022E-2,2.3217347E-1,6.155371E1,2E0,9.2E1,-1.4604765E-2,3.7097633E-2,-1.4575869E-2,2.0399204E-2,3.3510555E-2,-1.0658452E-2,3.5474305E-3,2.9728305E-2,-1.0683065E-2,2.633206E-2,7.2985864E-3,3.2447215E-2,-1.4860225E-2,3.4725696E-2,3.8265828E-2,2.3105904E-2,-1.3298933E-2,2.7943276E-2],"split_indices":[47,23,36,35,0,0,36,0,34,47,0,37,0,0,5,30,0,34,41,0,47,0,0,27,43,34,35,7,37,0,0,0,32,34,0,34,24,35,0,35,32,6,7,0,0,0,0,0,0,0,0,0,0,0,0,0,0,0,0,0,0],"split_type":[0,0,0,0,0,0,0,0,0,0,0,0,0,0,0,0,0,0,0,0,0,0,0,0,0,0,0,0,0,0,0,0,0,0,0,0,0,0,0,0,0,0,0,0,0,0,0,0,0,0,0,0,0,0,0,0,0,0,0,0,0],"sum_hessian":[5.1546356E2,2.711569E2,2.443067E2,8.7092316E1,1.8406458E2,3.6577255E1,2.0772945E2,2.562396E0,8.452992E1,1.9300038E2,1.4729063E1,8.249151E1,2.0384154E0,9.726115E1,9.5739235E1,9.180881E0,7.331062E1,3.1294218E1,6.596693E1,8.4116104E1,1.162313E1,2.179326E0,7.001555E0,1.9061344E1,1.2232873E1,3.643261E1,2.9534319E1,5.8778435E1,2.5337671E1,7.849717E0,3.773412E0,1.2674975E1,6.3863697E0,8.9342E0,3.2986732E0,1.7918169E1,1.851444E1,1.3637654E1,1.5896665E1,5.441883E1,4.359604E0,1.2721473E1,1.2616198E1,2.4789069E0,3.9074628E0,6.1604056E0,2.7737942E0,5.073868E0,1.2844301E1,3.900826E0,1.4613614E1,1.0071403E1,3.5662518E0,2.412796E0,5.2006035E1,2.151106E0,2.2084978E0,8.608804E0,4.112669E0,8.314482E0,4.3017154E0],"tree_param":{"num_deleted":"0","num_feature":"49","num_nodes":"61","size_leaf_vector":"1"}},{"base_weights":[-2.9989463E-1,6.5783656E-1,-1.1118138E0,-1.3977257E-2,1.0015062E0,-1.1306167E0,-1.1728884E-1,1.59221E0,2.3606833E-2,2.429078E-3,-1.1437616E0,-1.4114426E-2,1.8239252E-2,1.7363181E0,-1.4128635E-2,1.6636525E0,-2.9983208E-1,-6.8236035E-1,-1.3371408E-2,2.6701949E0,1.5213835E0,2.3095655E0,-1.4445971E-2,-7.1504986E-1,9.7406435E-1,-1.2604548E-2,6.3554096E-1,4.0188446E-3,3.1034095E0,1.9366121E0,7.6334035E-1,1.4978495E0,3.7274547E-2,2.5165644E-2,-8.5276055E-1,2.4905982E0,-1.41906105E-2,3.2065336E-2,-1.4023065E-2,3.2975264E0,2.2693515E-2,2.1372077E0,-5.5900323E-1,3.4936503E-1,4.16347E-2,2.3581516E-3,3.70262E-2,2.3304382E-1,-1.0957749E0,5.535272E-3,3.7469503E-2,3.278313E-2,4.2475373E-2,2.761792E-2,1.354051E-2,-1.4934456E-2,3.1561959E-3,1.3762624E-2,-9.941002E-3,2.120932E-2,-1.4085503E-2,-1.3385408E-2,3.297455E-3],"categories":[],"categories_nodes":[],"categories_segments":[],"categories_sizes":[],"default_left":[0,0,0,0,0,0,0,0,0,0,0,0,0,0,0,0,0,0,0,0,0,0,0,0,0,0,0,0,0,0,0,0,0,0,0,0,0,0,0,0,0,0,0,0,0,0,0,0,0,0,0,0,0,0,0,0,0,0,0,0,0,0,0],"id":11,"left_children":[1,3,5,-1,7,9,11,13,15,-1,17,-1,-1,19,-1,21,23,25,-1,27,29,31,-1,33,35,-1,37,-1,39,41,43,45,-1,-1,47,49,-1,-1,-1,51,-1,53,55,57,-1,-1,-1,59,61,-1,-1,-1,-1,-1,-1,-1,-1,-1,-1,-1,-1,-1,-1],"loss_changes":[3.919136E2,1.5053357E2,5.100647E0,0E0,1.13061615E2,4.7348022E0,9.909582E0,4.997415E1,3.909832E1,0E0,4.7753906E0,0E0,0E0,2.3309753E1,0E0,2.3068718E1,3.256475E1,1.1791694E1,0E0,2.1787064E1,2.971463E1,7.9806747E0,0E0,1.8806053E1,5.116617E1,0E0,2.1103756E1,0E0,3.8930511E0,3.0534363E1,4.0380566E1,1.2521994E1,0E0,0E0,1.1703789E1,1.4847797E1,0E0,0E0,0E0,2.8410797E0,0E0,1.621878E1,2.8987055E0,3.120994E1,0E0,0E0,0E0,1.971252E1,4.4385834E0,0E0,0E0,0E0,0E0,0E0,0E0,0E0,0E0,0E0,0E0,0E0,0E0,0E0,0E0],"parents":[2147483647,0,0,1,1,2,2,4,4,5,5,6,6,7,7,8,8,10,10,13,13,15,15,16,16,17,17,19,19,20,20,21,21,23,23,24,24,26,26,28,28,29,29,30,30,31,31,34,34,35,35,39,39,41,41,42,42,43,43,47,47,48,48],"right_children":[2,4,6,-1,8,10,12,14,16,-1,18,-1,-1,20,-1,22,24,26,-1,28,30,32,-1,34,36,-1,38,-1,40,42,44,46,-1,-1,48,50,-1,-1,-1,52,-1,54,56,58,-1,-1,-1,60,62,-1,-1,-1,-1,-1,-1,-1,-1,-1,-1,-1,-1,-1,-1],"split_conditions":[8.5714287E-1,1E0,7E0,-1.3977257E-2,1E0,2E0,4.2639917E-1,2E0,5E-1,2.429078E-3,1E0,-1.4114426E-2,1.8239252E-2,4E0,-1.4128635E-2,2.4489796E-1,2E0,3E0,-1.3371408E-2,1.6E1,1E0,3.985379E-1,-1.4445971E-2,3E0,1.8765685E-1,-1.2604548E-2,7E0,4.0188446E-3,9E0,8.5714287E-1,1.3E1,5E0,3.7274547E-2,2.5165644E-2,6E0,1E0,-1.41906105E-2,3.2065336E-2,-1.4023065E-2,2E0,2.2693515E-2,6E0,3E0,6.666667E-1,4.16347E-2,2.3581516E-3,3.70262E-2,1.4E1,1.2147018E1,5.535272E-3,3.7469503E-2,3.278313E-2,4.2475373E-2,2.761792E-2,1.354051E-2,-1.4934456E-2,3.1561959E-3,1.3762624E-2,-9.941002E-3,2.120932E-2,-1.4085503E-2,-1.3385408E-2,3.297455E-3],"split_indices":[48,36,36,0,39,24,34,36,48,0,9,0,0,19,0,29,40,21,0,24,41,30,0,19,34,0,19,0,37,27,43,23,0,0,24,45,0,0,0,40,0,3,21,48,0,0,0,7,33,0,0,0,0,0,0,0,0,0,0,0,0,0,0],"split_type":[0,0,0,0,0,0,0,0,0,0,0,0,0,0,0,0,0,0,0,0,0,0,0,0,0,0,0,0,0,0,0,0,0,0,0,0,0,0,0,0,0,0,0,0,0,0,0,0,0,0,0,0,0,0,0,0,0,0,0,0,0,0,0],"sum_hessian":[5.040038E2,2.3123795E2,2.7276587E2,3.5510685E1,1.9572726E2,2.6770447E2,5.061419E0,1.22020325E2,7.370693E1,2.5900226E0,2.6511444E2,3.0608134E0,2.0006056E0,1.16131714E2,5.8886113E0,1.2141507E1,6.1565426E1,2.0682165E1,2.4443227E2,2.1727259E1,9.440446E1,9.955462E0,2.186045E0,4.6431477E1,1.5133949E1,1.5570976E1,5.1111894E0,3.4253898E0,1.8301868E1,6.0993988E1,3.341047E1,5.464546E0,4.490916E0,2.0767245E0,4.4354755E1,9.006897E0,6.1270514E0,2.3519337E0,2.759256E0,1.5547928E1,2.7539406E0,5.645612E1,4.5378675E0,2.9261469E1,4.149E0,3.1672502E0,2.297296E0,8.111553E0,3.62432E1,2.626917E0,6.3799806E0,8.337621E0,7.210308E0,4.259167E1,1.3864447E1,2.3768923E0,2.1609755E0,1.7147495E1,1.2113976E1,3.8426533E0,4.2689E0,3.4075485E1,2.1677136E0],"tree_param":{"num_deleted":"0","num_feature":"49","num_nodes":"63","size_leaf_vector":"1"}},{"base_weights":[-2.4130005E-1,-1.1161653E0,7.618359E-1,1.1841296E-3,-1.1287851E0,-1.3937703E-2,1.1142797E0,-6.956153E-1,-1.3178774E-2,1.2748629E0,-1.4083544E-2,6.8075606E-3,-9.958449E-1,7.5786036E-1,1.9832629E0,-1.3975395E-2,9.264065E-3,1.0542543E0,-6.7850244E-1,2.2496629E0,2.1099169E-2,1.2339422E0,-1.4459841E-2,2.4216741E-2,-1.050119E0,2.44148E0,1.1956317E0,-1.4230548E-2,2.5343139E-2,2.5497645E-1,1.59534E0,3.7286882E-3,-1.4224196E-2,9.768667E-1,2.5719492E0,2.072458E0,-1.1602318E-2,-5.6896103E-3,2.5177993E-2,1.3449907E-2,2.814279E-2,3.839416E-2,-1.0406005E-2,3.0636104E-2,1.4289214E-2,3.5329975E-2,-7.062215E-3],"categories":[],"categories_nodes":[],"categories_segments":[],"categories_sizes":[],"default_left":[0,0,0,0,0,0,0,0,0,0,0,0,0,0,1,0,0,0,0,0,0,0,0,0,0,0,0,0,0,0,0,0,0,0,0,0,0,0,0,0,0,0,0,0,0,0,0],"id":12,"left_children":[1,3,5,-1,7,-1,9,11,-1,13,-1,-1,15,17,19,-1,-1,21,23,25,27,29,-1,-1,31,33,35,-1,-1,37,39,-1,-1,41,43,45,-1,-1,-1,-1,-1,-1,-1,-1,-1,-1,-1],"loss_changes":[4.4907867E2,4.211426E0,1.6758733E2,0E0,4.3330383E0,0E0,7.677719E1,8.290564E0,0E0,6.9468414E1,0E0,0E0,7.5406666E0,4.66823E1,4.1831116E1,0E0,0E0,3.8110268E1,1.9660603E1,1.4245239E1,2.7190172E1,2.985913E1,0E0,0E0,4.7597294E0,1.13905945E1,2.1135876E1,0E0,0E0,3.40304E1,2.2353302E1,0E0,0E0,2.238346E1,9.882477E0,2.2087727E1,0E0,0E0,0E0,0E0,0E0,0E0,0E0,0E0,0E0,0E0,0E0],"parents":[2147483647,0,0,1,1,2,2,4,4,6,6,7,7,9,9,12,12,13,13,14,14,17,17,18,18,19,19,20,20,21,21,24,24,25,25,26,26,29,29,30,30,33,33,34,34,35,35],"right_children":[2,4,6,-1,8,-1,10,12,-1,14,-1,-1,16,18,20,-1,-1,22,24,26,28,30,-1,-1,32,34,36,-1,-1,38,40,-1,-1,42,44,46,-1,-1,-1,-1,-1,-1,-1,-1,-1,-1,-1],"split_conditions":[1.6666667E-1,2E0,1E0,1.1841296E-3,1E0,-1.3937703E-2,2E0,8E0,-1.3178774E-2,5E-1,-1.4083544E-2,6.8075606E-3,5.9375E-1,6E0,3E0,-1.3975395E-2,9.264065E-3,1E0,2.0769978E-1,5.714286E-1,8.119219E-2,1E0,-1.4459841E-2,2.4216741E-2,7.060871E1,2.3217347E-1,3E0,-1.4230548E-2,2.5343139E-2,4.699514E0,8.8739746E2,3.7286882E-3,-1.4224196E-2,1E0,7E0,7E0,-1.1602318E-2,-5.6896103E-3,2.5177993E-2,1.3449907E-2,2.814279E-2,3.839416E-2,-1.0406005E-2,3.0636104E-2,1.4289214E-2,3.5329975E-2,-7.062215E-3],"split_indices":[47,24,36,0,9,0,36,24,0,47,0,0,29,3,5,0,0,20,35,27,30,14,0,0,31,35,16,0,0,33,31,0,0,5,3,19,0,0,0,0,0,0,0,0,0,0,0],"split_type":[0,0,0,0,0,0,0,0,0,0,0,0,0,0,0,0,0,0,0,0,0,0,0,0,0,0,0,0,0,0,0,0,0,0,0,0,0,0,0,0,0,0,0,0,0,0,0],"sum_hessian":[5.1170706E2,2.733288E2,2.3837827E2,2.7962878E0,2.705325E2,3.5794033E1,2.0258423E2,2.1277468E1,2.4925504E2,1.8967828E2,1.2905947E1,3.9974663E0,1.728E1,1.0965234E2,8.002594E1,1.5259406E1,2.0205948E0,9.089598E1,1.8756357E1,7.0459694E1,9.566244E0,8.439673E1,6.4992523E0,2.1834E0,1.6572958E1,5.9611263E1,1.0848434E1,6.068601E0,3.4976428E0,2.275569E1,6.164104E1,2.1718674E0,1.440109E1,4.875971E0,5.473529E1,7.7787886E0,3.069646E0,1.6436338E1,6.3193517E0,4.2404953E1,1.923609E1,2.1431475E0,2.7328231E0,4.9509808E1,5.2254844E0,5.5949893E0,2.1837995E0],"tree_param":{"num_deleted":"0","num_feature":"49","num_nodes":"47","size_leaf_vector":"1"}},{"base_weights":[-3.5058826E-1,-1.0096316E0,7.5700796E-1,-1.1188562E0,-2.4221139E-1,-1.3903719E-2,1.1271718E0,-1.2859398E-2,-2.3575875E-1,1.52838E0,-6.211367E-1,1.2882121E0,-1.4044572E-2,-1.403674E-2,1.7877286E-2,3.2337986E-2,-1.4147218E-2,1.513855E0,-9.6054375E-1,1.4226912E0,-1.0596451E-2,-1.4080552E-2,4.3863792E-2,-1.2989898E-2,1.1233411E-2,1.1314225E0,2.2456193E0,1.6581907E0,4.4294506E-1,1.8478727E0,2.8765364E0,1.3244857E0,3.0170155E0,1.3882469E0,-2.8571996E-1,2.227084E0,8.3854955E-1,3.6314607E-2,1.3721597E-2,1.7334603E-2,-1.8469382E-3,2.6748978E-2,4.049386E-2,2.258797E-2,-1.450716E-2,5.8047967E-3,-9.626169E-3,1.8678205E-2,3.4605533E-2,3.766862E-2,-8.3771E-3],"categories":[],"categories_nodes":[],"categories_segments":[],"categories_sizes":[],"default_left":[0,0,0,0,0,0,0,0,0,0,0,0,0,0,0,0,0,0,0,0,0,0,0,0,0,0,0,0,0,0,0,0,0,0,0,0,0,0,0,0,0,0,0,0,0,0,0,0,0,0,0],"id":13,"left_children":[1,3,5,7,9,-1,11,-1,13,15,17,19,-1,-1,-1,-1,-1,21,23,25,-1,-1,-1,-1,-1,27,29,31,33,35,37,39,41,43,45,47,49,-1,-1,-1,-1,-1,-1,-1,-1,-1,-1,-1,-1,-1,-1],"loss_changes":[3.6503577E2,2.6279999E1,1.3720673E2,4.5213013E0,2.6208597E1,0E0,6.00076E1,0E0,1.037852E1,2.5501158E1,2.3316761E1,4.4070465E1,0E0,0E0,0E0,0E0,0E0,2.881889E1,1.0228003E1,3.3283234E1,0E0,0E0,0E0,0E0,0E0,3.719484E1,9.108704E0,2.6346252E1,3.0621872E1,8.521286E0,7.835541E0,1.4498169E1,4.2116623E0,3.1527008E1,1.1351816E1,7.7587433E0,2.3949701E1,0E0,0E0,0E0,0E0,0E0,0E0,0E0,0E0,0E0,0E0,0E0,0E0,0E0,0E0],"parents":[2147483647,0,0,1,1,2,2,3,3,4,4,6,6,8,8,9,9,10,10,11,11,17,17,18,18,19,19,25,25,26,26,27,27,28,28,29,29,30,30,31,31,32,32,33,33,34,34,35,35,36,36],"right_children":[2,4,6,8,10,-1,12,-1,14,16,18,20,-1,-1,-1,-1,-1,22,24,26,-1,-1,-1,-1,-1,28,30,32,34,36,38,40,42,44,46,48,50,-1,-1,-1,-1,-1,-1,-1,-1,-1,-1,-1,-1,-1,-1],"split_conditions":[2.2222222E-1,1.6666667E-1,1E0,6E0,4.296875E-1,-1.3903719E-2,2E0,-1.2859398E-2,1.10546875E1,3E0,2E0,3E0,-1.4044572E-2,-1.403674E-2,1.7877286E-2,3.2337986E-2,-1.4147218E-2,4E0,5.714286E-1,6E-1,-1.0596451E-2,-1.4080552E-2,4.3863792E-2,-1.2989898E-2,1.1233411E-2,1E0,2E0,8E0,1.7753906E0,5.371932E-1,6E0,7E0,1.6528925E-1,5E0,5E0,2.6995117E1,2E0,3.6314607E-2,1.3721597E-2,1.7334603E-2,-1.8469382E-3,2.6748978E-2,4.049386E-2,2.258797E-2,-1.450716E-2,5.8047967E-3,-9.626169E-3,1.8678205E-2,3.4605533E-2,3.766862E-2,-8.3771E-3],"split_indices":[47,47,36,36,32,0,36,0,32,5,8,4,0,0,0,0,0,21,29,47,0,0,0,0,0,41,6,5,32,35,2,3,29,16,44,32,2,0,0,0,0,0,0,0,0,0,0,0,0,0,0],"split_type":[0,0,0,0,0,0,0,0,0,0,0,0,0,0,0,0,0,0,0,0,0,0,0,0,0,0,0,0,0,0,0,0,0,0,0,0,0,0,0,0,0,0,0,0,0,0,0,0,0,0,0],"sum_hessian":[5.0008038E2,3.1352588E2,1.8655452E2,2.744624E2,3.9063477E1,2.9297346E1,1.5725717E2,2.6878455E2,5.677859E0,6.886205E0,3.2177273E1,1.4724966E2,1.0007514E1,3.6547718E0,2.023087E0,4.6552863E0,2.2309191E0,4.4136224E0,2.7763649E1,1.3885912E2,8.390541E0,2.0375416E0,2.376081E0,2.5321146E1,2.442504E0,1.025593E2,3.6299812E1,5.810319E1,4.4456112E1,2.226421E1,1.4035603E1,4.6647495E1,1.1455696E1,1.9351418E1,2.5104696E1,1.6183722E1,6.080489E0,1.1677456E1,2.3581462E0,4.090466E1,5.742838E0,5.3233914E0,6.132305E0,1.5755035E1,3.5963812E0,1.0405873E1,1.4698823E1,9.580594E0,6.6031275E0,2.3580341E0,3.7224553E0],"tree_param":{"num_deleted":"0","num_feature":"49","num_nodes":"51","size_leaf_vector":"1"}},{"base_weights":[-1.4978853E-1,-1.0860767E0,8.6669374E-1,2.0948686E-3,-1.0988203E0,-1.3868112E-2,1.2045622E0,-1.1177094E0,-2.600484E-1,1.3747457E0,-1.3998765E-2,-6.899336E-1,-1.3068299E-2,1.735814E-2,-1.3999332E-2,2.024327E0,8.6210006E-1,7.6983464E-3,-9.926959E-1,1.5971309E0,2.7034197E0,5.1050043E-1,2.424602E0,-1.3909534E-2,8.823937E-3,2.2164829E0,3.990756E-2,2.914559E0,7.5673005E-3,1.066645E0,-1.7074479E-1,2.7312155E0,9.675102E-3,9.549555E-1,2.7407868E0,-1.1499345E-2,1.697632E0,1.299684E-2,3.0414023E0,-2.990461E-1,1.5729923E0,2.8602517E-1,-1.3182578E-2,1.4781441E-2,2.9974046E0,2.6105275E-2,-5.935965E-3,3.539374E-2,-4.4306177E-3,3.5301477E-2,-3.302343E-3,3.0314235E-2,3.8816143E-2,-1.0301148E-2,3.135031E-2,9.281341E-3,2.4332412E-2,-8.202433E-3,1.1548411E-2,2.4243964E-2,3.698741E-2],"categories":[],"categories_nodes":[],"categories_segments":[],"categories_sizes":[],"default_left":[0,0,0,0,0,0,0,0,0,0,0,0,0,0,0,0,0,0,0,0,0,0,0,0,0,0,0,0,0,0,0,0,0,0,0,0,0,0,0,0,0,0,0,0,0,0,0,0,0,0,0,0,0,0,0,0,0,0,0,0,0],"id":14,"left_children":[1,3,5,-1,7,-1,9,11,13,15,-1,17,-1,-1,-1,19,21,-1,23,25,27,29,31,-1,-1,33,35,37,-1,39,41,43,-1,45,47,-1,49,-1,51,53,55,57,-1,-1,59,-1,-1,-1,-1,-1,-1,-1,-1,-1,-1,-1,-1,-1,-1,-1,-1],"loss_changes":[4.8755017E2,4.3204956E0,1.7373007E2,0E0,4.1828613E0,0E0,8.792355E1,4.227936E0,1.0214031E1,6.5839966E1,0E0,8.802575E0,0E0,0E0,0E0,2.5299591E1,6.0708725E1,0E0,7.3223553E0,5.1631653E1,1.4462463E1,3.417684E1,9.763382E0,0E0,0E0,2.533255E1,2.6695026E1,6.829468E0,0E0,3.4343124E1,1.8433077E1,6.4343643E0,0E0,2.2538692E1,3.306064E1,0E0,1.6819353E1,0E0,4.0163574E0,2.5263613E1,1.5785271E1,2.0677397E1,0E0,0E0,3.3470764E0,0E0,0E0,0E0,0E0,0E0,0E0,0E0,0E0,0E0,0E0,0E0,0E0,0E0,0E0,0E0,0E0],"parents":[2147483647,0,0,1,1,2,2,4,4,6,6,7,7,8,8,9,9,11,11,15,15,16,16,18,18,19,19,20,20,21,21,22,22,25,25,26,26,27,27,29,29,30,30,31,31,33,33,34,34,36,36,38,38,39,39,40,40,41,41,44,44],"right_children":[2,4,6,-1,8,-1,10,12,14,16,-1,18,-1,-1,-1,20,22,-1,24,26,28,30,32,-1,-1,34,36,38,-1,40,42,44,-1,46,48,-1,50,-1,52,54,56,58,-1,-1,60,-1,-1,-1,-1,-1,-1,-1,-1,-1,-1,-1,-1,-1,-1,-1,-1],"split_conditions":[1.6666667E-1,2E0,1E0,2.0948686E-3,6E0,-1.3868112E-2,2E0,1E0,3.1918656E-2,2.6E1,-1.3998765E-2,8E0,-1.3068299E-2,1.735814E-2,-1.3999332E-2,4E0,7.5E-1,7.6983464E-3,6.111111E-1,3.75E-1,1E0,1E0,3.8E1,-1.3909534E-2,8.823937E-3,3.885413E-2,4E1,2.5E-1,7.5673005E-3,1E0,4.2209372E-1,3.75E-1,9.675102E-3,2E0,2.4E1,-1.1499345E-2,4.3E1,1.299684E-2,1E0,6.5E1,4E-1,2.895802E-1,-1.3182578E-2,1.4781441E-2,3.643325E-1,2.6105275E-2,-5.935965E-3,3.539374E-2,-4.4306177E-3,3.5301477E-2,-3.302343E-3,3.0314235E-2,3.8816143E-2,-1.0301148E-2,3.135031E-2,9.281341E-3,2.4332412E-2,-8.202433E-3,1.1548411E-2,2.4243964E-2,3.698741E-2],"split_indices":[47,24,36,0,36,0,36,9,33,0,0,24,0,0,0,43,47,0,29,27,46,41,0,0,0,33,24,47,0,5,35,28,0,16,0,0,24,0,11,24,27,35,0,0,35,0,0,0,0,0,0,0,0,0,0,0,0,0,0,0,0],"split_type":[0,0,0,0,0,0,0,0,0,0,0,0,0,0,0,0,0,0,0,0,0,0,0,0,0,0,0,0,0,0,0,0,0,0,0,0,0,0,0,0,0,0,0,0,0,0,0,0,0,0,0,0,0,0,0,0,0,0,0,0,0],"sum_hessian":[5.122829E2,2.6666037E2,2.456225E2,2.6462646E0,2.6401413E2,3.413315E1,2.1148935E2,2.5819937E2,5.814735E0,1.9771541E2,1.3773941E1,2.1207756E1,2.3699162E2,2.0507765E0,3.7639585E0,8.720997E1,1.1050544E2,3.8363714E0,1.7371386E1,5.35338E1,3.367617E1,9.0206894E1,2.0298548E1,1.5318017E1,2.0533676E0,3.830053E1,1.5233271E1,3.0509172E1,3.1669993E0,4.9663452E1,4.054344E1,1.6979788E1,3.3187602E0,1.1244774E1,2.7055756E1,9.301686E0,5.931585E0,2.045757E0,2.8463415E1,1.3432905E1,3.6230545E1,2.7790369E1,1.2753073E1,2.6747475E0,1.430504E1,5.871905E0,5.3728685E0,2.4060036E1,2.9957197E0,3.456236E0,2.4753492E0,1.4843238E1,1.3620177E1,1.1201053E1,2.231852E0,1.5766987E1,2.046356E1,1.1699477E1,1.609089E1,3.4824991E0,1.0822541E1],"tree_param":{"num_deleted":"0","num_feature":"49","num_nodes":"61","size_leaf_vector":"1"}},{"base_weights":[-2.0989895E-1,-1.087012E0,7.714149E-1,2.300979E-3,-1.0994303E0,1.330557E0,3.1465676E-2,-9.062627E-1,-1.3503126E-2,2.7364304E0,1.1474949E0,-4.8109627E-1,1.2772194E0,-1.048663E0,1.7136077E0,3.5099182E-2,1.8726626E-2,4.0441662E-1,1.4424396E0,-3.072839E-2,-1.351436E-2,2.1242073E0,-1.1110505E-2,-2.9327986E-1,-1.2783251E-2,3.4806675E-3,3.752107E-2,2.1379776E0,-2.9711127E-1,1.5531069E0,-1.428663E-2,-4.415805E-1,1.9002047E0,2.6691449E0,-1.4174859E-2,2.1236528E-2,-1.3856141E-2,3.4627046E-2,-1.4436157E-2,3.2463316E-2,-7.999061E-1,1.6642296E0,-3.7693724E-1,1.649782E0,-7.4911886E-1,3.828699E-3,2.7908762E0,2.973118E0,1.6476213E-3,1.1436087E-2,-1.3041933E-2,1.4058517E0,2.2274115E0,8.566135E-3,-1.4282997E-2,3.9041083E-2,1.4100112E-3,4.6737686E-1,-1.0764483E0,2.1282002E-2,3.9962437E-2,2.531164E-2,3.613184E-2,1.7743444E-2,-7.9390155E-3,2.7953977E-2,3.3172243E-3,3.067296E-2,-1.3979338E-2,-1.4042163E-2,-3.4227024E-3],"categories":[],"categories_nodes":[],"categories_segments":[],"categories_sizes":[],"default_left":[0,0,0,0,0,0,0,0,0,0,0,0,0,0,0,0,0,0,0,0,0,0,0,0,0,0,0,0,0,0,0,0,0,0,0,0,0,0,0,0,0,0,0,0,0,0,0,1,0,0,0,0,0,0,0,0,0,0,0,0,0,0,0,0,0,0,0,0,0,0,0],"id":15,"left_children":[1,3,5,-1,7,9,11,13,-1,15,17,19,21,23,25,-1,-1,27,29,31,-1,33,-1,35,-1,-1,-1,37,39,41,-1,43,45,47,-1,-1,-1,-1,-1,-1,49,51,53,55,57,-1,59,61,-1,-1,-1,63,65,-1,-1,-1,-1,67,69,-1,-1,-1,-1,-1,-1,-1,-1,-1,-1,-1,-1],"loss_changes":[4.468453E2,4.3933716E0,1.0137427E2,0E0,4.983612E0,3.591742E1,6.733887E1,3.3399445E1,0E0,6.395508E0,2.7063187E1,2.4038082E1,5.884765E1,5.266556E0,1.0415169E1,0E0,0E0,4.2670433E1,2.647374E1,3.6355167E1,0E0,4.1164993E1,0E0,1.685856E1,0E0,0E0,0E0,3.1932068E1,3.9796383E1,1.821376E1,0E0,2.4303223E1,1.1181747E1,1.4769775E1,0E0,0E0,0E0,0E0,0E0,0E0,1.3814937E1,1.1684372E1,4.6506495E0,1.3324876E1,1.3117483E1,0E0,3.4595947E0,2.8128052E0,0E0,0E0,0E0,1.8995293E1,1.1981804E1,0E0,0E0,0E0,0E0,2.6729383E1,3.3273907E0,0E0,0E0,0E0,0E0,0E0,0E0,0E0,0E0,0E0,0E0,0E0,0E0],"parents":[2147483647,0,0,1,1,2,2,4,4,5,5,6,6,7,7,9,9,10,10,11,11,12,12,13,13,14,14,17,17,18,18,19,19,21,21,23,23,27,27,28,28,29,29,31,31,32,32,33,33,40,40,41,41,42,42,43,43,44,44,46,46,47,47,51,51,52,52,57,57,58,58],"right_children":[2,4,6,-1,8,10,12,14,-1,16,18,20,22,24,26,-1,-1,28,30,32,-1,34,-1,36,-1,-1,-1,38,40,42,-1,44,46,48,-1,-1,-1,-1,-1,-1,50,52,54,56,58,-1,60,62,-1,-1,-1,64,66,-1,-1,-1,-1,68,70,-1,-1,-1,-1,-1,-1,-1,-1,-1,-1,-1,-1],"split_conditions":[1.6666667E-1,2E0,1E0,2.300979E-3,2E0,2.1E1,3.7E1,3.7920696E-1,-1.3503126E-2,2.2E1,3.125E-1,1.3783203E1,2.6E1,1E0,2E0,3.5099182E-2,1.8726626E-2,4E0,1.3E1,6E-1,-1.351436E-2,3.0159616E-1,-1.1110505E-2,9.090909E-2,-1.2783251E-2,3.4806675E-3,3.752107E-2,3E0,3.3398438E-1,5E0,-1.428663E-2,2.3E1,9.2E1,6E1,-1.4174859E-2,2.1236528E-2,-1.3856141E-2,3.4627046E-2,-1.4436157E-2,3.2463316E-2,1E0,2E0,1.2792969E0,7.906662E-2,6E0,3.828699E-3,6E0,2E0,1.6476213E-3,1.1436087E-2,-1.3041933E-2,5.9944046E-1,3.1987768E-1,8.566135E-3,-1.4282997E-2,3.9041083E-2,1.4100112E-3,1.4E1,1.03E2,2.1282002E-2,3.9962437E-2,2.531164E-2,3.613184E-2,1.7743444E-2,-7.9390155E-3,2.7953977E-2,3.3172243E-3,3.067296E-2,-1.3979338E-2,-1.4042163E-2,-3.4227024E-3],"split_indices":[47,24,39,0,23,0,24,34,0,24,47,32,0,37,11,0,0,19,44,47,0,34,0,26,0,0,0,8,32,16,0,0,7,7,0,0,0,0,0,0,37,11,32,34,24,0,19,5,0,0,0,35,34,0,0,0,0,7,7,0,0,0,0,0,0,0,0,0,0,0,0],"split_type":[0,0,0,0,0,0,0,0,0,0,0,0,0,0,0,0,0,0,0,0,0,0,0,0,0,0,0,0,0,0,0,0,0,0,0,0,0,0,0,0,0,0,0,0,0,0,0,0,0,0,0,0,0,0,0,0,0,0,0,0,0,0,0,0,0,0,0,0,0,0,0],"sum_hessian":[5.191509E2,2.7412967E2,2.4502118E2,2.612623E0,2.7151706E2,1.395615E2,1.0545969E2,8.9525635E1,1.8199142E2,1.6078821E1,1.2348267E2,7.471741E1,3.0742277E1,8.491047E1,4.6151605E0,1.1989182E1,4.0896378E0,3.508656E1,8.839612E1,4.5826126E1,2.8891285E1,2.2361801E1,8.380477E0,8.325111E0,7.658536E1,2.4606767E0,2.154484E0,1.0108118E1,2.4978441E1,8.492331E1,3.4728074E0,3.7786274E1,8.039854E0,1.9255598E1,3.106203E0,2.5005455E0,5.824566E0,7.953655E0,2.154463E0,3.4205964E0,2.1557844E1,8.030006E1,4.623256E0,4.8441305E0,3.2942142E1,2.920237E0,5.1196175E0,1.7185385E1,2.0702136E0,3.521978E0,1.8035868E1,5.5046165E1,2.5253887E1,2.027766E0,2.5954902E0,2.219268E0,2.6248624E0,6.9845138E0,2.5957628E1,2.3055449E0,2.8140724E0,4.0044985E0,1.3180886E1,5.1079987E1,3.9661791E0,2.2410973E1,2.8429163E0,3.0131123E0,3.9714017E0,2.1379116E1,4.5785108E0],"tree_param":{"num_deleted":"0","num_feature":"49","num_nodes":"71","size_leaf_vector":"1"}},{"base_weights":[-1.9214647E-1,-1.0870001E0,7.987392E-1,-1.1057193E0,-1.9267072E-1,-1.3823756E-2,1.1252965E0,2.1204485E-3,-1.118995E0,1.7543562E-2,-1.3967764E-2,1.7860354E0,4.532002E-1,-1.3084681E-2,-7.867776E-1,1.9149536E0,-1.3964436E-2,1.1036834E0,-5.881338E-1,-1.2195677E-2,1.8619535E-2,2.3937373E0,1.2977855E0,1.4504263E0,-6.067984E-1,-9.568111E-1,1.2454371E0,2.8290477E0,1.405975E0,-3.0917746E-1,1.7306271E0,1.9651384E0,9.027698E-2,-1.4245073E-2,2.2004368E-2,-1.3551414E-2,8.209535E-3,2.3454417E-2,-3.5840066E-3,1.5753042E0,3.0481858E0,-1.4527349E-2,3.3522535E-2,-1.4424583E-2,2.1354811E-2,2.3005862E0,9.079909E-1,2.1560397E0,-5.161038E-3,-1.4440094E-2,1.1589875E0,3.5830006E-2,-1.4462764E-2,2.7906645E-2,3.680957E-2,8.572529E-3,2.9191397E-2,-3.5919088E-3,2.4376566E-2,2.6406432E-2,-6.4951647E-3,2.5273612E-2,-9.726246E-3],"categories":[],"categories_nodes":[],"categories_segments":[],"categories_sizes":[],"default_left":[0,0,0,0,0,0,0,0,0,0,0,0,0,0,0,0,0,0,0,0,0,0,0,0,0,0,0,0,0,0,0,0,0,0,0,0,0,0,0,0,1,0,0,0,0,0,0,0,0,0,0,0,0,0,0,0,0,0,0,0,0,0,0],"id":16,"left_children":[1,3,5,7,9,-1,11,-1,13,-1,-1,15,17,-1,19,21,-1,23,25,-1,-1,27,29,31,33,35,37,39,41,43,45,47,49,-1,-1,-1,-1,-1,-1,51,53,-1,-1,-1,-1,55,57,59,-1,-1,61,-1,-1,-1,-1,-1,-1,-1,-1,-1,-1,-1,-1],"loss_changes":[4.476362E2,4.4408875E0,1.581485E2,4.4611816E0,9.895E0,0E0,9.158984E1,0E0,3.284607E0,0E0,0E0,4.050888E1,6.9257576E1,0E0,1.8959127E1,2.9473541E1,0E0,3.7325455E1,2.6574715E1,0E0,0E0,2.4151764E1,3.0309654E1,3.663233E1,1.76931E1,1.3326143E1,8.527565E0,1.071109E1,7.21016E1,1.9650816E1,1.6095543E1,1.7549301E1,2.0996058E1,0E0,0E0,0E0,0E0,0E0,0E0,2.6398214E1,3.9983826E0,0E0,0E0,0E0,0E0,8.807343E0,2.1498089E1,1.72762E1,0E0,0E0,1.7532188E1,0E0,0E0,0E0,0E0,0E0,0E0,0E0,0E0,0E0,0E0,0E0,0E0],"parents":[2147483647,0,0,1,1,2,2,3,3,4,4,6,6,8,8,11,11,12,12,14,14,15,15,17,17,18,18,21,21,22,22,23,23,24,24,25,25,26,26,27,27,28,28,29,29,30,30,31,31,32,32,39,39,40,40,45,45,46,46,47,47,50,50],"right_children":[2,4,6,8,10,-1,12,-1,14,-1,-1,16,18,-1,20,22,-1,24,26,-1,-1,28,30,32,34,36,38,40,42,44,46,48,50,-1,-1,-1,-1,-1,-1,52,54,-1,-1,-1,-1,56,58,60,-1,-1,62,-1,-1,-1,-1,-1,-1,-1,-1,-1,-1,-1,-1],"split_conditions":[1.6666667E-1,7E0,1E0,2E0,2.4406476E-1,-1.3823756E-2,2.7E1,2.1204485E-3,4.5E1,1.7543562E-2,-1.3967764E-2,2E0,1E0,-1.3084681E-2,5.9375E-1,1.536674E-1,-1.3964436E-2,1E0,6E-1,-1.2195677E-2,1.8619535E-2,2.4E1,2.857143E-1,2.6E1,1E0,6.666667E-1,1.3783203E1,1.1E1,6E-1,2E0,1E0,7.777778E-1,2.1837953E-1,-1.4245073E-2,2.2004368E-2,-1.3551414E-2,8.209535E-3,2.3454417E-2,-3.5840066E-3,4E0,2E0,-1.4527349E-2,3.3522535E-2,-1.4424583E-2,2.1354811E-2,8E0,4.3143555E1,3.5029334E-1,-5.161038E-3,-1.4440094E-2,2E0,3.5830006E-2,-1.4462764E-2,2.7906645E-2,3.680957E-2,8.572529E-3,2.9191397E-2,-3.5919088E-3,2.4376566E-2,2.6406432E-2,-6.4951647E-3,2.5273612E-2,-9.726246E-3],"split_indices":[47,36,36,24,35,0,0,0,24,0,0,36,39,0,29,34,0,38,47,0,0,0,47,24,12,29,32,24,47,6,1,27,34,0,0,0,0,0,0,44,5,0,0,0,0,24,32,34,0,0,5,0,0,0,0,0,0,0,0,0,0,0,0],"split_type":[0,0,0,0,0,0,0,0,0,0,0,0,0,0,0,0,0,0,0,0,0,0,0,0,0,0,0,0,0,0,0,0,0,0,0,0,0,0,0,0,0,0,0,0,0,0,0,0,0,0,0,0,0,0,0,0,0,0,0,0,0,0,0],"sum_hessian":[5.0483508E2,2.6527203E2,2.3956305E2,2.5983337E2,5.4386606E0,3.3316532E1,2.0624652E2,2.6400292E0,2.5719333E2,2.0347893E0,3.4038713E0,1.0400189E2,1.0224464E2,2.3051785E2,2.6675484E1,9.97458E1,4.256092E0,6.2932842E1,3.931179E1,2.3817762E1,2.8577213E0,5.6170128E1,4.357567E1,5.232562E1,1.0607227E1,3.2730675E1,6.5811176E0,3.898786E1,1.7182266E1,9.246627E0,3.432904E1,3.7960438E1,1.4365179E1,8.446199E0,2.1610277E0,2.8617302E1,4.113371E0,4.2992826E0,2.2818346E0,5.800803E0,3.3187057E1,6.3036942E0,1.0878572E1,6.422136E0,2.8244908E0,2.02788E1,1.4050242E1,3.5186687E1,2.7737515E0,6.3013616E0,8.063817E0,3.7222087E0,2.0785942E0,8.761243E0,2.4425816E1,3.1311514E0,1.7147648E1,7.089234E0,6.961009E0,3.3012833E1,2.1738522E0,5.259588E0,2.8042295E0],"tree_param":{"num_deleted":"0","num_feature":"49","num_nodes":"63","size_leaf_vector":"1"}},{"base_weights":[-1.7265974E-1,-1.0971891E0,8.0279076E-1,-1.116513E0,-1.7693822E-1,-1.3787855E-2,1.1376865E0,-6.878334E-1,-1.306624E-2,1.7122896E-2,-1.4001672E-2,2.0497978E0,6.6561085E-1,-1.2479395E-2,6.088244E-1,2.1639347E0,-1.3966585E-2,2.138381E-1,1.9519529E0,3.3200882E-2,-1.3825764E-2,2.29121E0,-2.8566553E-3,8.932106E-1,-8.2123774E-1,2.2224953E0,3.2467186E-1,1.7842691E0,2.7712915E0,1.2193567E0,-7.3418623E-1,-1.3485467E-2,7.5268775E-2,2.4016695E0,6.8114824E-3,1.6294327E-2,-1.4826282E-2,2.1213574E0,-1.4494173E-2,1.6049435E-2,2.8940759E0,2.241238E0,7.3467946E-1,-1.430088E-2,1.14520285E-2,1.0650917E0,-1.40528865E-2,8.325236E-3,2.567502E0,1.7059905E-2,3.65244E-2,3.4091603E-2,2.4403479E-2,3.0960765E-2,1.1014875E-2,1.3975132E-2,-1.0948912E-2,-1.4672762E-3,3.1930927E-2,1.9849017E-2,3.1246258E-2],"categories":[],"categories_nodes":[],"categories_segments":[],"categories_sizes":[],"default_left":[0,0,0,0,0,0,0,0,0,0,0,0,0,0,0,0,0,0,0,0,0,0,0,0,0,0,0,0,0,0,0,0,0,0,0,0,0,0,0,0,0,0,0,0,0,0,0,0,0,0,0,0,0,0,0,0,0,0,0,0,0],"id":17,"left_children":[1,3,5,7,9,-1,11,13,-1,-1,-1,15,17,-1,19,21,-1,23,25,-1,-1,27,-1,29,31,33,35,37,39,41,43,-1,45,47,-1,-1,-1,49,-1,-1,51,53,55,-1,-1,57,-1,-1,59,-1,-1,-1,-1,-1,-1,-1,-1,-1,-1,-1,-1],"loss_changes":[4.57136E2,4.627716E0,1.6706079E2,4.2933655E0,9.612058E0,0E0,9.111786E1,1.1546534E1,0E0,0E0,0E0,2.7061981E1,8.103534E1,0E0,2.2172634E1,2.145285E1,0E0,7.2570076E1,1.5956299E1,0E0,0E0,1.6124878E1,0E0,3.3069847E1,1.362557E1,9.020187E0,9.44043E0,3.331224E1,5.6470337E0,2.5706612E1,9.647661E0,0E0,1.563927E1,7.727112E0,0E0,0E0,0E0,1.9724243E1,0E0,0E0,2.7886658E0,1.0523384E1,3.0072622E1,0E0,0E0,1.4391193E1,0E0,0E0,4.0576935E0,0E0,0E0,0E0,0E0,0E0,0E0,0E0,0E0,0E0,0E0,0E0,0E0],"parents":[2147483647,0,0,1,1,2,2,3,3,4,4,6,6,7,7,11,11,12,12,14,14,15,15,17,17,18,18,21,21,23,23,24,24,25,25,26,26,27,27,28,28,29,29,30,30,32,32,33,33,37,37,40,40,41,41,42,42,45,45,48,48],"right_children":[2,4,6,8,10,-1,12,14,-1,-1,-1,16,18,-1,20,22,-1,24,26,-1,-1,28,-1,30,32,34,36,38,40,42,44,-1,46,48,-1,-1,-1,50,-1,-1,52,54,56,-1,-1,58,-1,-1,60,-1,-1,-1,-1,-1,-1,-1,-1,-1,-1,-1,-1],"split_conditions":[1.6666667E-1,7E0,1E0,1E0,6E0,-1.3787855E-2,2.4E1,3E0,-1.306624E-2,1.7122896E-2,-1.4001672E-2,2E0,6E-1,-1.2479395E-2,7E0,5.6E-1,-1.3966585E-2,1E0,1E0,3.3200882E-2,-1.3825764E-2,3.05332E-2,-2.8566553E-3,1E0,2E0,3.7E1,2E0,1E0,2.4930412E-1,3.061812E-1,1E0,-1.3485467E-2,1.1371094E1,2.6698413E-1,6.8114824E-3,1.6294327E-2,-1.4826282E-2,5.8411133E1,-1.4494173E-2,1.6049435E-2,1E0,6E0,1.0649639E0,-1.430088E-2,1.14520285E-2,1E0,-1.40528865E-2,8.325236E-3,1.1005343E2,1.7059905E-2,3.65244E-2,3.4091603E-2,2.4403479E-2,3.0960765E-2,1.1014875E-2,1.3975132E-2,-1.0948912E-2,-1.4672762E-3,3.1930927E-2,1.9849017E-2,3.1246258E-2],"split_indices":[47,36,36,9,37,0,0,21,0,0,0,36,47,0,19,29,0,39,38,0,0,33,0,38,6,0,21,46,35,35,20,0,32,35,0,0,0,32,0,0,39,37,30,0,0,46,0,0,31,0,0,0,0,0,0,0,0,0,0,0,0],"split_type":[0,0,0,0,0,0,0,0,0,0,0,0,0,0,0,0,0,0,0,0,0,0,0,0,0,0,0,0,0,0,0,0,0,0,0,0,0,0,0,0,0,0,0,0,0,0,0,0,0,0,0,0,0,0,0,0,0,0,0,0,0],"sum_hessian":[5.0689658E2,2.6024094E2,2.4665562E2,2.5488858E2,5.352357E0,3.504131E1,2.1161432E2,2.1402433E1,2.3348615E2,2.0637999E0,3.2885573E0,7.217074E1,1.3944357E2,1.6203281E1,5.1991506E0,6.974759E1,2.4231513E0,1.0319933E2,3.6244244E1,2.2894707E0,2.90968E0,6.625804E1,3.489546E0,6.230529E1,4.0894043E1,3.1077433E1,5.166809E0,3.2227707E1,3.4030334E1,5.1903397E1,1.0401895E1,2.8909454E1,1.1984588E1,2.7982412E1,3.0950212E0,3.0709374E0,2.095872E0,2.9035833E1,3.191874E0,2.8340967E0,3.1196238E1,1.6697807E1,3.520559E1,7.9780564E0,2.423838E0,6.8452263E0,5.139362E0,2.5343096E0,2.5448103E1,1.871057E1,1.0325262E1,2.67701E1,4.4261384E0,1.198966E1,4.708147E0,2.7197113E1,8.008476E0,4.0766726E0,2.7685537E0,4.959311E0,2.048879E1],"tree_param":{"num_deleted":"0","num_feature":"49","num_nodes":"61","size_leaf_vector":"1"}},{"base_weights":[-2.2753921E-1,-9.9848735E-1,8.615444E-1,-1.0941067E0,-2.6110324E-1,-1.3760165E-2,1.204943E0,-6.7970705E-1,-1.1305202E0,1.851041E0,-7.2502E-1,1.3421749E0,-1.393975E-2,-1.2444681E-2,6.9172376E-1,-1.3537447E-2,-9.298238E-1,3.8613693E-3,3.8497023E-2,-8.9076895E-1,1.2179687E-2,1.8359796E0,8.041988E-1,-1.3900451E-2,3.004607E-2,-1.3314321E-2,2.959451E-1,-1.3971722E-2,-4.432165E-1,1.6135833E0,2.9246805E0,1.845837E0,1.2214212E-1,-1.3744228E-2,2.7676906E-2,-1.0717539E-2,1.1066712E-2,2.1665633E0,9.508949E-1,2.151854E0,3.673924E-2,1.0767542E-2,2.209059E0,-1.8585762E-1,2.3143115E0,1.4823363E0,2.5797682E0,1.6739941E0,-1.1421743E-2,1.3348813E-2,3.5232145E-2,-1.4290404E-2,2.0839158E-2,7.4875164E-1,2.590895E0,-1.4261653E-2,4.7246242E-1,3.5379134E-2,1.1629714E-2,2.5672946E-2,-1.4522982E-2,3.2676462E-2,2.0537034E-2,1.2468806E-2,2.7841939E-2,-1.4728949E-2,3.0792447E-2,3.3132292E-2,1.802787E-2,-5.8374573E-3,1.3839524E-2],"categories":[],"categories_nodes":[],"categories_segments":[],"categories_sizes":[],"default_left":[0,0,0,0,0,0,0,0,0,0,0,0,0,0,0,0,0,0,0,0,0,0,0,0,0,0,0,0,0,0,0,0,0,0,0,0,0,0,0,0,0,0,0,0,0,0,0,1,0,0,0,0,0,0,0,0,0,0,0,0,0,0,0,0,0,0,0,0,0,0,0],"id":18,"left_children":[1,3,5,7,9,-1,11,13,15,17,19,21,-1,-1,23,-1,25,-1,-1,27,-1,29,31,-1,-1,-1,33,-1,35,37,39,41,43,-1,-1,-1,-1,45,47,49,-1,51,53,55,57,59,61,63,-1,-1,-1,-1,-1,65,67,-1,69,-1,-1,-1,-1,-1,-1,-1,-1,-1,-1,-1,-1,-1,-1],"loss_changes":[4.2378436E2,2.0837097E1,1.4933485E2,3.9474182E0,3.324025E1,0E0,6.0069946E1,1.2203902E1,3.2318726E0,1.4333057E1,8.309496E0,4.5154205E1,0E0,0E0,1.8752516E1,0E0,1.8284817E1,0E0,0E0,3.934435E0,0E0,2.1457642E1,5.77946E1,0E0,0E0,0E0,3.293433E1,0E0,7.962533E0,2.6967804E1,3.7771912E0,2.1455185E1,3.3192085E1,0E0,0E0,0E0,0E0,1.1341583E1,4.747411E1,4.1703625E0,0E0,1.2426372E1,1.4982666E1,3.0523888E1,6.3466454E0,3.296131E1,5.929901E0,1.1016815E1,0E0,0E0,0E0,0E0,0E0,2.2569893E1,7.2121887E0,0E0,1.9876722E1,0E0,0E0,0E0,0E0,0E0,0E0,0E0,0E0,0E0,0E0,0E0,0E0,0E0,0E0],"parents":[2147483647,0,0,1,1,2,2,3,3,4,4,6,6,7,7,8,8,9,9,10,10,11,11,14,14,16,16,19,19,21,21,22,22,26,26,28,28,29,29,30,30,31,31,32,32,37,37,38,38,39,39,41,41,42,42,43,43,44,44,45,45,46,46,47,47,53,53,54,54,56,56],"right_children":[2,4,6,8,10,-1,12,14,16,18,20,22,-1,-1,24,-1,26,-1,-1,28,-1,30,32,-1,-1,-1,34,-1,36,38,40,42,44,-1,-1,-1,-1,46,48,50,-1,52,54,56,58,60,62,64,-1,-1,-1,-1,-1,66,68,-1,70,-1,-1,-1,-1,-1,-1,-1,-1,-1,-1,-1,-1,-1,-1],"split_conditions":[2.2222222E-1,1.6666667E-1,1E0,1E0,4.296875E-1,-1.3760165E-2,2E0,3E0,6E-1,3E0,6.666667E-1,2.7E1,-1.393975E-2,-1.2444681E-2,2.3E1,-1.3537447E-2,2.9488242E-1,3.8613693E-3,3.8497023E-2,2.2E1,1.2179687E-2,7E0,4E0,-1.3900451E-2,3.004607E-2,-1.3314321E-2,3.985379E-1,-1.3971722E-2,3.6E1,1.536674E-1,1E0,3.3333334E-1,1E0,-1.3744228E-2,2.7676906E-2,-1.0717539E-2,1.1066712E-2,4E-1,1E0,5.100805E-1,3.673924E-2,7E-1,1.1130724E-1,2.0802808E-1,-7.7110773E-1,2.4E1,3.4E-1,5E0,-1.1421743E-2,1.3348813E-2,3.5232145E-2,-1.4290404E-2,2.0839158E-2,7E0,4.416992E1,-1.4261653E-2,2.7272728E-1,3.5379134E-2,1.1629714E-2,2.5672946E-2,-1.4522982E-2,3.2676462E-2,2.0537034E-2,1.2468806E-2,2.7841939E-2,-1.4728949E-2,3.0792447E-2,3.3132292E-2,1.802787E-2,-5.8374573E-3,1.3839524E-2],"split_indices":[47,47,36,9,32,0,36,21,27,6,29,0,0,0,7,0,34,0,0,7,0,43,37,0,0,0,30,0,0,34,41,47,47,0,0,0,0,47,41,35,0,28,34,34,30,0,29,37,0,0,0,0,0,2,32,0,27,0,0,0,0,0,0,0,0,0,0,0,0,0,0],"split_type":[0,0,0,0,0,0,0,0,0,0,0,0,0,0,0,0,0,0,0,0,0,0,0,0,0,0,0,0,0,0,0,0,0,0,0,0,0,0,0,0,0,0,0,0,0,0,0,0,0,0,0,0,0,0,0,0,0,0,0,0,0,0,0,0,0,0,0,0,0,0,0],"sum_hessian":[5.047292E2,2.9552847E2,2.0920071E2,2.6160507E2,3.3923416E1,2.965944E1,1.7954128E2,2.1130823E1,2.4047424E2,6.109133E0,2.7814283E1,1.6997379E2,9.567484E0,1.6166658E1,4.9641657E0,1.8030788E2,6.0166374E1,3.0993257E0,3.009807E0,2.5471949E1,2.3423347E0,8.862512E1,8.134867E1,2.5106559E0,2.45351E0,5.0044292E1,1.0122083E1,1.4381362E1,1.1090586E1,7.359216E1,1.5032961E1,3.218915E1,4.915952E1,5.945838E0,4.1762447E0,8.185118E0,2.9054675E0,4.0116634E1,3.347553E1,4.452301E0,1.058066E1,5.3186235E0,2.6870527E1,4.3103508E1,6.05601E0,1.5104868E1,2.5011766E1,2.4457998E1,9.0175295E0,2.2189393E0,2.233362E0,3.1366177E0,2.1820061E0,5.569741E0,2.1300785E1,1.6364305E1,2.6739202E1,3.7058415E0,2.3501682E0,1.1754676E1,3.3501925E0,1.7774433E1,7.2373347E0,1.4187763E1,1.0270235E1,2.731914E0,2.8378267E0,1.5881699E1,5.419088E0,1.1548522E1,1.519068E1],"tree_param":{"num_deleted":"0","num_feature":"49","num_nodes":"71","size_leaf_vector":"1"}},{"base_weights":[-1.9749217E-1,-1.1142639E0,7.692922E-1,-7.010431E-1,-1.302767E-2,-1.3723144E-2,1.0811245E0,-1.24115E-2,3.8597432E-1,1.228173E0,-1.3881268E-2,3.0537533E-2,-1.3784587E-2,1.6521137E0,4.9771997E-1,1.1975616E0,2.1817477E0,1.2819861E0,-7.556216E-1,1.5128402E0,-8.855802E-1,2.3082132E0,-1.5203924E-2,7.8678715E-1,3.0865556E-2,-1.0010933E0,6.781437E-1,1.9840336E0,2.1119432E-1,4.831301E-3,-1.429271E-2,2.499905E0,2.5927603E-1,1.2019037E0,-1.4144305E-2,-1.3944851E-2,4.764137E-3,2.9537957E-2,-1.4678491E-2,1.3116851E-2,2.6847046E-2,9.327769E-3,-1.4610128E-2,3.098868E-2,2.3459192E-2,2.6590632E-2,-1.4578641E-2,1.777386E-2,-1.4480019E-2],"categories":[],"categories_nodes":[],"categories_segments":[],"categories_sizes":[],"default_left":[0,0,0,0,0,0,0,0,0,0,0,0,0,0,0,0,0,0,0,0,0,1,0,1,0,0,0,0,0,0,0,0,0,0,0,0,0,0,0,0,0,0,0,0,0,0,0,0,0],"id":19,"left_children":[1,3,5,7,-1,-1,9,-1,11,13,-1,-1,-1,15,17,19,21,23,25,27,29,31,-1,33,-1,35,37,39,41,-1,-1,43,45,47,-1,-1,-1,-1,-1,-1,-1,-1,-1,-1,-1,-1,-1,-1,-1],"loss_changes":[4.504343E2,4.110016E0,1.529723E2,9.506722E0,0E0,0E0,7.2575745E1,0E0,2.1906528E1,6.2227875E1,0E0,0E0,0E0,3.0611267E1,7.253943E1,4.4940834E1,2.6192108E1,3.255558E1,9.996914E0,3.6451126E1,4.4726686E0,2.2266907E1,0E0,2.8617565E1,0E0,8.018848E0,1.5878487E1,1.40466E1,1.4581024E1,0E0,0E0,5.3125E0,1.5723018E1,2.583908E1,0E0,0E0,0E0,0E0,0E0,0E0,0E0,0E0,0E0,0E0,0E0,0E0,0E0,0E0,0E0],"parents":[2147483647,0,0,1,1,2,2,3,3,6,6,8,8,9,9,13,13,14,14,15,15,16,16,17,17,18,18,19,19,20,20,21,21,23,23,25,25,26,26,27,27,28,28,31,31,32,32,33,33],"right_children":[2,4,6,8,-1,-1,10,-1,12,14,-1,-1,-1,16,18,20,22,24,26,28,30,32,-1,34,-1,36,38,40,42,-1,-1,44,46,48,-1,-1,-1,-1,-1,-1,-1,-1,-1,-1,-1,-1,-1,-1,-1],"split_conditions":[1.6666667E-1,1E0,1E0,3E0,-1.302767E-2,-1.3723144E-2,2E0,-1.24115E-2,7E0,1E0,-1.3881268E-2,3.0537533E-2,-1.3784587E-2,5E-1,2.9E1,7E0,2.166607E0,6E-1,6E-1,2E0,8.060002E1,3E0,-1.5203924E-2,3E0,3.0865556E-2,3E0,1E0,1.6609465E2,3.75E-1,4.831301E-3,-1.429271E-2,2E-1,2.7E1,4.4E1,-1.4144305E-2,-1.3944851E-2,4.764137E-3,2.9537957E-2,-1.4678491E-2,1.3116851E-2,2.6847046E-2,9.327769E-3,-1.4610128E-2,3.098868E-2,2.3459192E-2,2.6590632E-2,-1.4578641E-2,1.777386E-2,-1.4480019E-2],"split_indices":[47,9,36,21,0,0,36,0,19,39,0,0,0,47,0,2,30,47,47,41,31,5,0,5,0,6,9,31,27,0,0,27,0,7,0,0,0,0,0,0,0,0,0,0,0,0,0,0,0],"split_type":[0,0,0,0,0,0,0,0,0,0,0,0,0,0,0,0,0,0,0,0,0,0,0,0,0,0,0,0,0,0,0,0,0,0,0,0,0,0,0,0,0,0,0,0,0,0,0,0,0],"sum_hessian":[5.0820688E2,2.6085046E2,2.473564E2,2.2037703E1,2.3881277E2,3.3608833E1,2.1374756E2,1.6143936E1,5.8937664E0,2.0095027E2,1.2797297E1,2.4132366E0,3.4805295E0,1.27153E2,7.379727E1,6.842682E1,5.8726177E1,4.5393055E1,2.8404215E1,5.9431976E1,8.994844E0,5.66932E1,2.0329785E0,3.382714E1,1.1565914E1,2.4252123E1,4.152093E0,4.3635815E1,1.5796162E1,2.0136683E0,6.981176E0,5.1842907E1,4.850293E0,2.8102854E1,5.724287E0,2.084601E1,3.4061115E0,2.0982668E0,2.053826E0,1.4040379E1,2.9595436E1,1.1216472E1,4.5796905E0,3.306218E1,1.8780725E1,2.0628817E0,2.7874112E0,2.4455185E1,3.64767E0],"tree_param":{"num_deleted":"0","num_feature":"49","num_nodes":"49","size_leaf_vector":"1"}},{"base_weights":[-2.3341562E-1,-1.0939775E0,6.647956E-1,-1.1138128E0,-3.6951937E-2,1.275461E0,-2.7334487E-1,2.2769491E-3,-1.1276131E0,-1.3864575E-2,1.7767537E-2,-1.3716373E-2,1.5135723E0,9.1886616E-1,-7.662094E-1,-1.322341E-2,-7.27809E-1,1.626031E0,-1.3895709E-2,-1.40075395E-2,1.3744816E0,-1.0113859E0,-3.3677075E-2,-1.1844849E-2,1.7112914E-2,1.791358E0,3.3777726E-1,-1.598243E-1,1.9977138E0,-1.0924946E0,9.07156E-3,2.508615E-2,-5.704703E-1,2.0164657E0,8.899249E-1,-1.0753756E-2,2.0769506E0,-1.4127562E-2,1.4697696E-2,2.3683336E0,-1.2088158E-3,-2.9122987E-1,-1.3913339E-2,-9.559243E-1,1.3869249E-2,2.4084942E0,1.5641136E0,3.1680472E-2,1.7593114E-1,3.521371E-2,7.373279E-3,3.2484517E-2,1.3158379E0,1.8569216E-2,-1.388257E-2,-1.3919232E-2,2.4538874E-3,3.1946614E-2,2.2004873E-2,2.3002662E-2,5.8872458E-3,-2.5129395E-3,3.4400325E-2,3.2732166E-2,3.5212463E-4],"categories":[],"categories_nodes":[],"categories_segments":[],"categories_sizes":[],"default_left":[0,0,0,0,0,0,0,0,0,0,0,0,0,0,0,0,0,0,0,0,0,0,0,0,0,0,0,0,0,0,0,0,0,0,0,0,0,0,0,0,0,0,0,0,0,0,0,0,0,0,0,0,0,0,0,0,0,0,0,0,0,0,0,0,0],"id":20,"left_children":[1,3,5,7,9,11,13,-1,15,-1,-1,-1,17,19,21,-1,23,25,-1,-1,27,29,31,-1,-1,33,35,37,39,41,-1,-1,43,45,47,-1,49,-1,-1,51,-1,53,-1,55,-1,57,59,-1,61,-1,-1,-1,63,-1,-1,-1,-1,-1,-1,-1,-1,-1,-1,-1,-1],"loss_changes":[3.9028052E2,5.4064026E0,1.4153372E2,4.5941467E0,9.08852E0,8.868016E1,5.723688E1,0E0,4.2156067E0,0E0,0E0,0E0,4.2126923E1,2.801188E1,1.2377487E1,0E0,1.7114254E1,2.794278E1,0E0,0E0,2.2494476E1,7.596527E0,2.0898663E1,0E0,0E0,2.359436E1,3.3453568E1,1.0812317E1,1.30490265E1,5.474762E0,0E0,0E0,9.668991E0,1.6498993E1,3.1726171E1,0E0,9.393234E0,0E0,0E0,7.562248E0,0E0,1.3175432E1,0E0,3.7116604E0,0E0,9.611694E0,2.1211594E1,0E0,1.9316135E1,0E0,0E0,0E0,9.361133E0,0E0,0E0,0E0,0E0,0E0,0E0,0E0,0E0,0E0,0E0,0E0,0E0],"parents":[2147483647,0,0,1,1,2,2,3,3,4,4,5,5,6,6,8,8,12,12,13,13,14,14,16,16,17,17,20,20,21,21,22,22,25,25,26,26,27,27,28,28,29,29,32,32,33,33,34,34,36,36,39,39,41,41,43,43,45,45,46,46,48,48,52,52],"right_children":[2,4,6,8,10,12,14,-1,16,-1,-1,-1,18,20,22,-1,24,26,-1,-1,28,30,32,-1,-1,34,36,38,40,42,-1,-1,44,46,48,-1,50,-1,-1,52,-1,54,-1,56,-1,58,60,-1,62,-1,-1,-1,64,-1,-1,-1,-1,-1,-1,-1,-1,-1,-1,-1,-1],"split_conditions":[1.6666667E-1,7E0,1E0,2E0,1.1371094E1,1E0,2.4E1,2.2769491E-3,4.5E1,-1.3864575E-2,1.7767537E-2,-1.3716373E-2,2E0,1.1E1,1E0,-1.322341E-2,5.9375E-1,7E0,-1.3895709E-2,-1.40075395E-2,2.2E1,7.346939E-1,9E0,-1.1844849E-2,1.7112914E-2,5.714286E-1,4.2857143E-1,4E-1,4.3E1,1E0,9.07156E-3,2.508615E-2,1.1E1,1E0,2.1E1,-1.0753756E-2,2.943606E2,-1.4127562E-2,1.4697696E-2,2.857143E-1,-1.2088158E-3,3.6205724E-1,-1.3913339E-2,6.3958806E-1,1.3869249E-2,4.4924106E-2,7.729492E0,3.1680472E-2,1.2E2,3.521371E-2,7.373279E-3,3.2484517E-2,7.9889465E1,1.8569216E-2,-1.388257E-2,-1.3919232E-2,2.4538874E-3,3.1946614E-2,2.2004873E-2,2.3002662E-2,5.8872458E-3,-2.5129395E-3,3.4400325E-2,3.2732166E-2,3.5212463E-4],"split_indices":[47,36,39,24,32,36,0,0,24,0,0,0,36,24,46,0,29,2,0,0,0,29,24,0,0,27,47,47,24,37,0,0,37,41,0,0,31,0,0,47,0,35,0,35,0,30,32,0,24,0,0,0,31,0,0,0,0,0,0,0,0,0,0,0,0],"split_type":[0,0,0,0,0,0,0,0,0,0,0,0,0,0,0,0,0,0,0,0,0,0,0,0,0,0,0,0,0,0,0,0,0,0,0,0,0,0,0,0,0,0,0,0,0,0,0,0,0,0,0,0,0,0,0,0,0,0,0,0,0,0,0,0,0],"sum_hessian":[5.0491266E2,2.578606E2,2.4705205E2,2.5311082E2,4.7497735E0,1.4964404E2,9.740801E1,2.6281748E0,2.5048264E2,2.730669E0,2.0191042E0,1.3066844E1,1.365772E2,2.8490637E1,6.891737E1,2.2662048E2,2.3862165E1,1.3119785E2,5.3793497E0,4.9666724E0,2.3523964E1,5.1635143E1,1.7282232E1,2.0881628E1,2.9805365E0,1.1627565E2,1.4922202E1,6.7951827E0,1.672878E1,4.942507E1,2.210072E0,3.3255877E0,1.3956645E1,9.304109E1,2.3234554E1,8.570199E0,6.352003E0,3.890747E0,2.9044356E0,1.4224004E1,2.5047765E0,7.272789E0,4.2152283E1,1.1492093E1,2.4645524E0,4.9843826E1,4.3197266E1,6.316194E0,1.691836E1,3.6747203E0,2.6772826E0,9.610897E0,4.6131067E0,2.373354E0,4.899435E0,9.307403E0,2.1846905E0,2.618482E1,2.3659006E1,2.9768686E1,1.342858E1,1.4855087E1,2.063272E0,2.069036E0,2.5440707E0],"tree_param":{"num_deleted":"0","num_feature":"49","num_nodes":"65","size_leaf_vector":"1"}},{"base_weights":[-1.545622E-1,-1.0901933E0,7.833361E-1,1.9078308E-3,-1.1036671E0,-1.3662413E-2,1.0796994E0,-6.5041035E-1,-1.2924454E-2,1.70404E0,4.4325137E-1,7.6567563E-3,-9.6420914E-1,1.7946017E0,-1.3819918E-2,1.459939E-1,2.1756072E0,-1.3705393E-2,9.115262E-3,1.3963658E0,2.4224975E0,7.596418E-1,-5.591285E-1,1.4780515E0,3.0535923E-2,3.1351882E-1,1.8458629E0,2.6097908E0,7.159066E-1,1.3528993E0,-7.892116E-1,1.6299297E-1,-1.0841664E0,1.757264E-3,2.5098039E-2,1.3557305E0,-1.4345965E-2,2.3974135E0,1.1331587E0,3.112959E-2,1.685345E0,-9.095062E-3,2.618886E-2,1.9346248E0,2.6804873E-1,-1.4219416E-2,5.9711304E-3,-1.39759425E-2,9.443926E-1,2.1257102E-3,-1.4083441E-2,2.7133485E-2,-7.0085945E-3,3.2072235E-2,1.7359307E-2,-4.2499644E-3,1.8339101E-2,5.898135E-3,3.3978608E-2,2.7176945E-2,-7.0832064E-4,3.3032525E-2,-8.51547E-3,6.617047E-4,3.200339E-2],"categories":[],"categories_nodes":[],"categories_segments":[],"categories_sizes":[],"default_left":[0,0,0,0,0,0,0,0,0,0,0,0,0,0,0,0,0,0,0,0,0,0,0,0,0,0,0,0,0,0,0,0,0,0,0,0,0,0,0,0,0,0,0,0,0,0,0,0,0,0,0,0,0,0,0,0,0,0,0,0,0,0,0,0,0],"id":21,"left_children":[1,3,5,-1,7,-1,9,11,-1,13,15,-1,17,19,-1,21,23,-1,-1,25,27,29,31,33,-1,35,37,39,41,43,45,47,49,-1,-1,51,-1,53,55,-1,57,-1,-1,59,61,-1,-1,-1,63,-1,-1,-1,-1,-1,-1,-1,-1,-1,-1,-1,-1,-1,-1,-1,-1],"loss_changes":[4.4482382E2,4.3046265E0,1.494374E2,0E0,4.5061035E0,0E0,8.7562195E1,8.404638E0,0E0,2.9481567E1,5.6192883E1,0E0,7.168374E0,2.6979828E1,0E0,4.0301487E1,5.858261E0,0E0,0E0,3.2136246E1,1.3384308E1,4.5760136E1,1.6431963E1,6.739707E0,0E0,3.1943716E1,1.8340042E1,5.0175476E0,1.0079042E1,2.2724113E1,8.514563E0,1.9949497E1,5.159809E0,0E0,0E0,2.4096077E1,0E0,9.964844E0,1.5023226E1,0E0,7.806409E0,0E0,0E0,2.1974197E1,3.4068012E1,0E0,0E0,0E0,1.9565863E1,0E0,0E0,0E0,0E0,0E0,0E0,0E0,0E0,0E0,0E0,0E0,0E0,0E0,0E0,0E0,0E0],"parents":[2147483647,0,0,1,1,2,2,4,4,6,6,7,7,9,9,10,10,12,12,13,13,15,15,16,16,19,19,20,20,21,21,22,22,23,23,25,25,26,26,27,27,28,28,29,29,30,30,31,31,32,32,35,35,37,37,38,38,40,40,43,43,44,44,48,48],"right_children":[2,4,6,-1,8,-1,10,12,-1,14,16,-1,18,20,-1,22,24,-1,-1,26,28,30,32,34,-1,36,38,40,42,44,46,48,50,-1,-1,52,-1,54,56,-1,58,-1,-1,60,62,-1,-1,-1,64,-1,-1,-1,-1,-1,-1,-1,-1,-1,-1,-1,-1,-1,-1,-1,-1],"split_conditions":[1.6666667E-1,2E0,1E0,1.9078308E-3,1E0,-1.3662413E-2,2.7E1,8E0,-1.2924454E-2,2E0,1E0,7.6567563E-3,1.25E-1,4E0,-1.3819918E-2,1E0,3E0,-1.3705393E-2,9.115262E-3,3.3333334E-1,1E0,1.0649639E0,1.1E1,3.8109437E-1,3.0535923E-2,2E0,1.4E1,3E0,5.0356364E-1,3.3E1,1.7618415E-1,4E0,3E0,1.757264E-3,2.5098039E-2,1.1488725E-1,-1.4345965E-2,2.2222222E-1,2.2387457E-1,3.112959E-2,1.2161534E3,-9.095062E-3,2.618886E-2,7.7879176E-2,1.3E1,-1.4219416E-2,5.9711304E-3,-1.39759425E-2,1E0,2.1257102E-3,-1.4083441E-2,2.7133485E-2,-7.0085945E-3,3.2072235E-2,1.7359307E-2,-4.2499644E-3,1.8339101E-2,5.898135E-3,3.3978608E-2,2.7176945E-2,-7.0832064E-4,3.3032525E-2,-8.51547E-3,6.617047E-4,3.200339E-2],"split_indices":[47,24,36,0,9,0,0,24,0,36,47,0,47,43,0,41,8,0,0,47,46,30,24,35,0,3,7,5,35,0,34,2,37,0,0,34,0,27,34,0,31,0,0,33,7,0,0,0,42,0,0,0,0,0,0,0,0,0,0,0,0,0,0,0,0],"split_type":[0,0,0,0,0,0,0,0,0,0,0,0,0,0,0,0,0,0,0,0,0,0,0,0,0,0,0,0,0,0,0,0,0,0,0,0,0,0,0,0,0,0,0,0,0,0,0,0,0,0,0,0,0,0,0,0,0,0,0,0,0,0,0,0,0],"sum_hessian":[5.069061E2,2.537598E2,2.531463E2,2.6870353E0,2.5107275E2,3.2786358E1,2.2035995E2,2.0172558E1,2.3090019E2,1.1123793E2,1.09122025E2,3.85624E0,1.6316317E1,1.0789902E2,3.3389125E0,9.314008E1,1.5981942E1,1.4310739E1,2.0055785E0,6.60242E1,4.1874813E1,4.980034E1,4.333974E1,6.867162E0,9.11478E0,1.9367577E1,4.6656628E1,3.7733597E1,4.1412168E0,3.600817E1,1.3792169E1,1.824544E1,2.50943E1,2.4681711E0,4.398991E0,1.1677272E1,7.6903043E0,2.6301828E1,2.03548E1,3.2652287E1,5.0813136E0,2.1238534E0,2.017363E0,2.34393E1,1.2568872E1,1.0173485E1,3.6186838E0,6.5378513E0,1.1707588E1,2.828585E0,2.2265715E1,7.6390038E0,4.0382686E0,1.7417316E1,8.884511E0,4.982019E0,1.537278E1,2.7010128E0,2.3803008E0,1.897905E1,4.460249E0,3.4927318E0,9.07614E0,7.96676E0,3.7408285E0],"tree_param":{"num_deleted":"0","num_feature":"49","num_nodes":"65","size_leaf_vector":"1"}},{"base_weights":[-1.923393E-1,7.231832E-1,-1.0794305E0,1.2501347E0,-4.002131E-2,1.686666E-3,-1.0928055E0,2.0149283E0,9.575495E-1,-6.249283E-1,1.3433082E0,-1.1317137E0,-7.1952987E-1,2.18618E0,9.958042E-4,1.331469E0,-1.6522463E-1,-7.8249514E-1,6.412239E-1,2.3870666E0,4.4395454E-2,-5.6829053E-1,-1.305495E-2,-1.2575576E-2,1.8500741E-1,3.0615684E-2,1.6606957E0,8.5867685E-1,1.9092431E0,-7.060688E-1,2.3518214E-2,8.610088E-1,-9.215487E-1,2.7804798E-2,-6.276441E-3,3.0600326E-2,1.2456336E-2,1.0065521E0,-1.3940263E-2,-1.3639926E-2,1.6005842E-2,-9.535026E-3,2.8460786E-2,2.1631832E0,-1.4969515E-2,3.1174153E-1,1.5831584E0,2.3830914E0,1.3070359E0,6.7039573E-1,-1.283669E-2,-1.3976543E-2,3.5283074E-2,-1.2970682E-2,-2.0777029E-1,-5.371527E-3,2.0386736E0,1.3820282E0,2.6313398E0,-5.5104956E-2,2.3796799E-2,2.190221E0,-6.1180987E-3,1.3911741E0,2.650383E0,2.053254E0,-1.21192485E-2,-1.4078664E-2,2.8232886E-2,-9.5576763E-1,3.4049787E-2,3.4470096E-2,1.3342834E-2,5.780026E-3,2.9450946E-2,1.7108396E-2,3.34882E-2,-5.1931017E-3,1.6575566E-2,2.9300198E-2,4.420191E-3,3.328792E-3,2.8784584E-2,2.1977108E-2,3.3432744E-2,-1.7919139E-3,2.8610932E-2,1.8931944E-3,-1.37997E-2],"categories":[],"categories_nodes":[],"categories_segments":[],"categories_sizes":[],"default_left":[0,0,0,0,0,0,0,0,0,0,0,0,0,0,0,0,0,0,0,0,0,0,0,0,0,0,0,0,0,0,0,0,0,0,0,0,0,1,0,0,0,0,0,0,0,0,0,0,0,0,0,0,0,0,0,0,0,0,0,0,0,0,0,0,0,0,0,0,0,0,0,0,0,0,0,0,0,0,0,0,0,0,0,0,0,0,0,0,0],"id":22,"left_children":[1,3,5,7,9,-1,11,13,15,17,19,21,23,25,-1,27,29,31,33,35,37,39,-1,-1,41,-1,43,45,47,49,-1,51,53,-1,-1,-1,-1,55,-1,-1,-1,-1,-1,57,-1,59,61,63,65,67,-1,-1,-1,-1,69,-1,71,73,75,77,-1,79,-1,81,83,85,-1,-1,-1,87,-1,-1,-1,-1,-1,-1,-1,-1,-1,-1,-1,-1,-1,-1,-1,-1,-1,-1,-1],"loss_changes":[4.044344E2,9.855719E1,4.15625E0,3.243901E1,8.098738E1,0E0,3.6335144E0,1.3236496E1,4.4021095E1,1.4034782E1,4.0326702E1,2.9480896E0,8.392951E0,1.0104874E1,0E0,2.1486847E1,3.1815403E1,1.429784E1,1.6937674E1,6.7773438E0,1.6289953E1,1.1298819E1,0E0,0E0,1.7156593E1,0E0,2.7536022E1,1.7141363E1,1.0100952E1,1.2479037E1,0E0,2.3133791E1,9.296886E0,0E0,0E0,0E0,0E0,1.156083E1,0E0,0E0,0E0,0E0,0E0,5.746086E0,0E0,1.621657E1,2.3999088E1,5.252014E0,2.7674618E1,1.7571587E1,0E0,0E0,0E0,0E0,3.338624E1,0E0,3.8643818E0,6.271265E0,3.6346436E0,1.2585965E1,0E0,1.04578705E1,0E0,5.3270063E0,3.3833237E0,1.2535187E1,0E0,0E0,0E0,3.3475084E0,0E0,0E0,0E0,0E0,0E0,0E0,0E0,0E0,0E0,0E0,0E0,0E0,0E0,0E0,0E0,0E0,0E0,0E0,0E0],"parents":[2147483647,0,0,1,1,2,2,3,3,4,4,6,6,7,7,8,8,9,9,10,10,11,11,12,12,13,13,15,15,16,16,17,17,18,18,19,19,20,20,21,21,24,24,26,26,27,27,28,28,29,29,31,31,32,32,37,37,43,43,45,45,46,46,47,47,48,48,49,49,54,54,56,56,57,57,58,58,59,59,61,61,63,63,64,64,65,65,69,69],"right_children":[2,4,6,8,10,-1,12,14,16,18,20,22,24,26,-1,28,30,32,34,36,38,40,-1,-1,42,-1,44,46,48,50,-1,52,54,-1,-1,-1,-1,56,-1,-1,-1,-1,-1,58,-1,60,62,64,66,68,-1,-1,-1,-1,70,-1,72,74,76,78,-1,80,-1,82,84,86,-1,-1,-1,88,-1,-1,-1,-1,-1,-1,-1,-1,-1,-1,-1,-1,-1,-1,-1,-1,-1,-1,-1],"split_conditions":[8.5714287E-1,1E0,2E0,2.3E1,3.7E1,1.686666E-3,4.5E1,3.3E1,7.1428573E-1,1.48E2,4.3E1,7.444124E1,3E0,1.1111111E-1,9.958042E-4,4E-1,3E0,1E0,4E-1,2.2343948E2,1E0,3.125427E-1,-1.305495E-2,-1.2575576E-2,1E0,3.0615684E-2,2.2343948E2,2E0,3E0,3E0,2.3518214E-2,6.293191E-1,5E0,2.7804798E-2,-6.276441E-3,3.0600326E-2,1.2456336E-2,1E0,-1.3940263E-2,-1.3639926E-2,1.6005842E-2,-9.535026E-3,2.8460786E-2,8.333333E-1,-1.4969515E-2,1.2E1,3.1E1,1.4236097E-1,3.1E1,2.00001E0,-1.283669E-2,-1.3976543E-2,3.5283074E-2,-1.2970682E-2,8.3671875E0,-5.371527E-3,3.3333334E-1,5.8411133E1,4E0,1E1,2.3796799E-2,7.5E1,-6.1180987E-3,3.5E1,8.060002E1,1.5366753E2,-1.21192485E-2,-1.4078664E-2,2.8232886E-2,1.2311821E0,3.4049787E-2,3.4470096E-2,1.3342834E-2,5.780026E-3,2.9450946E-2,1.7108396E-2,3.34882E-2,-5.1931017E-3,1.6575566E-2,2.9300198E-2,4.420191E-3,3.328792E-3,2.8784584E-2,2.1977108E-2,3.3432744E-2,-1.7919139E-3,2.8610932E-2,1.8931944E-3,-1.37997E-2],"split_indices":[48,39,24,0,24,0,24,24,48,7,24,31,21,25,0,26,6,6,48,31,41,34,0,0,46,0,31,11,44,43,0,35,16,0,0,0,0,14,0,0,0,0,0,26,0,19,0,34,0,14,0,0,0,0,32,0,25,32,43,44,0,7,0,0,31,31,0,0,0,33,0,0,0,0,0,0,0,0,0,0,0,0,0,0,0,0,0,0,0],"split_type":[0,0,0,0,0,0,0,0,0,0,0,0,0,0,0,0,0,0,0,0,0,0,0,0,0,0,0,0,0,0,0,0,0,0,0,0,0,0,0,0,0,0,0,0,0,0,0,0,0,0,0,0,0,0,0,0,0,0,0,0,0,0,0,0,0,0,0,0,0,0,0,0,0,0,0,0,0,0,0,0,0,0,0,0,0,0,0,0,0],"sum_hessian":[4.979786E2,2.4506215E2,2.5291646E2,1.4496895E2,1.000932E2,2.7235854E0,2.5019287E2,4.0113922E1,1.0485502E2,7.034824E1,2.9744955E1,2.2657559E2,2.3617277E1,3.6839687E1,3.2742357E0,7.865908E1,2.6195938E1,6.2562675E1,7.7855716E0,1.6492275E1,1.325268E1,8.921882E0,2.176537E2,1.6465666E1,7.1516104E0,1.8480791E1,1.8358896E1,4.325984E1,3.5399246E1,2.1111382E1,5.0845556E0,4.880327E0,5.7682346E1,3.089753E0,4.6958184E0,1.3206386E1,3.2858906E0,7.5594025E0,5.6932774E0,6.7504253E0,2.1714563E0,4.9632683E0,2.1883423E0,1.5713618E1,2.6452787E0,2.4650509E1,1.8609327E1,1.981079E1,1.5588455E1,5.0201383E0,1.6091244E1,2.5312815E0,2.3490455E0,4.3819733E1,1.3862614E1,3.1037161E0,4.4556866E0,5.888527E0,9.825091E0,2.0464197E1,4.1863117E0,1.4473382E1,4.1359463E0,4.205349E0,1.560544E1,1.1866465E1,3.7219903E0,2.4505484E0,2.5695899E0,1.1249279E1,2.6133347E0,2.046464E0,2.4092226E0,3.4398475E0,2.4486794E0,2.244244E0,7.5808473E0,1.6167974E1,4.2962217E0,1.1832258E1,2.6411233E0,2.1572003E0,2.0481486E0,4.727936E0,1.0877504E1,2.1073306E0,9.759134E0,2.146813E0,9.102466E0],"tree_param":{"num_deleted":"0","num_feature":"49","num_nodes":"89","size_leaf_vector":"1"}},{"base_weights":[-1.19528666E-1,-1.0562509E0,8.28267E-1,-1.07563E0,-5.3621866E-2,-1.360903E-2,1.1343024E0,2.0674532E-3,-1.0891178E0,1.7939547E-2,-1.3746175E-2,1.2723532E0,-1.3788623E-2,-6.541104E-1,-1.1281688E0,1.6754111E0,5.827196E-1,-1.2244593E-2,6.928259E-1,-1.3090541E-2,-7.136686E-1,1.8179513E0,4.6402353E-1,-9.132185E-2,1.8352346E0,3.0478349E-2,-1.368196E-2,9.363841E-3,-1.1956614E-2,1.2854115E0,1.9946538E0,-1.0271698E-2,2.1635768E0,-5.223116E-1,1.580792E0,2.343421E0,-1.4304896E-2,1.9531407E0,-1.5004192E-1,2.1905978E0,1.1773672E0,3.5502676E-2,1.4328361E-2,2.3342168E-2,-6.6976637E-1,2.2658248E0,4.3340953E-4,2.5874634E0,9.350216E-3,-1.4121802E-2,2.623852E-2,2.618773E-2,-1.4608294E-2,2.1554686E-2,2.8973758E-2,2.6823435E-2,-1.3995176E-3,-1.0525976E-2,7.5825322E-3,1.6563792E-2,3.4477085E-2,3.1230189E-2,1.2398357E-2],"categories":[],"categories_nodes":[],"categories_segments":[],"categories_sizes":[],"default_left":[0,0,0,0,0,0,0,0,0,0,0,0,0,0,0,0,0,0,0,0,0,0,0,0,0,0,0,0,0,0,0,0,0,0,0,0,0,1,0,0,0,0,0,0,0,0,0,0,0,0,0,0,0,0,0,0,0,0,0,0,0,0,0],"id":23,"left_children":[1,3,5,7,9,-1,11,-1,13,-1,-1,15,-1,17,19,21,23,-1,25,-1,27,29,31,33,35,-1,-1,-1,-1,37,39,-1,41,43,45,47,-1,49,51,53,55,-1,-1,-1,57,59,-1,61,-1,-1,-1,-1,-1,-1,-1,-1,-1,-1,-1,-1,-1,-1,-1],"loss_changes":[4.5130838E2,4.9673767E0,1.5713496E2,4.2575073E0,9.244066E0,0E0,7.136441E1,0E0,4.2153625E0,0E0,0E0,5.765912E1,0E0,1.1812684E1,2.811432E0,2.2605835E1,6.459879E1,0E0,1.8826235E1,0E0,8.098188E0,1.1022308E1,3.215447E1,3.5849926E1,4.2182487E1,0E0,0E0,0E0,0E0,2.7972713E1,1.4084564E1,0E0,5.390623E0,1.5088088E1,1.0771584E1,8.511101E0,0E0,2.346392E1,2.610301E1,7.4995117E0,2.645529E1,0E0,0E0,0E0,1.310858E1,4.4301376E0,0E0,5.1705933E0,0E0,0E0,0E0,0E0,0E0,0E0,0E0,0E0,0E0,0E0,0E0,0E0,0E0,0E0,0E0],"parents":[2147483647,0,0,1,1,2,2,3,3,4,4,6,6,8,8,11,11,13,13,14,14,15,15,16,16,18,18,20,20,21,21,22,22,23,23,24,24,29,29,30,30,32,32,33,33,34,34,35,35,37,37,38,38,39,39,40,40,44,44,45,45,47,47],"right_children":[2,4,6,8,10,-1,12,-1,14,-1,-1,16,-1,18,20,22,24,-1,26,-1,28,30,32,34,36,-1,-1,-1,-1,38,40,-1,42,44,46,48,-1,50,52,54,56,-1,-1,-1,58,60,-1,62,-1,-1,-1,-1,-1,-1,-1,-1,-1,-1,-1,-1,-1,-1,-1],"split_conditions":[1.6666667E-1,6E0,1E0,2E0,3.9441562E2,-1.360903E-2,2E0,2.0674532E-3,